svm_type c_svc
kernel_type polynomial
degree 4
gamma 0.0175439
coef0 0
nr_class 2
total_sv 508
rho 6.64026
label 1 -1
nr_sv 246 262
SV
65536 1:-0.973568 2:-1 3:-0.905882 4:-1 5:-0.98 6:-1 7:-1 8:-0.969397 9:-0.935361 10:-0.969397 11:-1 12:-0.979317 13:-0.989189 14:-1 15:-1 16:-0.994094 17:-1 18:-1 19:-0.952 20:-1 21:-0.963996 22:-1 23:-0.988991 24:-1 25:-0.886702 26:-0.853541 27:-1 28:-1 29:-1 30:-1 31:-1 32:-1 33:-1 34:-1 35:-1 36:-1 37:-0.461386 38:-1 39:-1 40:-1 41:-1 42:-1 43:-0.966387 44:-1 45:-0.957983 46:-1 47:-1 48:-1 49:-0.918358 50:-0.937449 51:-0.979114 52:-0.996968 53:-0.996335 54:-0.99768 55:-0.996708 56:-0.994994 57:-0.683207 
52345.69355927355 1:-1 2:-1 3:-1 4:-1 5:-0.854 6:-1 7:-1 8:-1 9:-1 10:-1 11:-1 12:-1 13:-1 14:-1 15:-1 16:-0.856299 17:-1 18:-1 19:-0.6864 20:-1 21:-0.60396 22:-1 23:-1 24:-1 25:-1 26:-1 27:-1 28:-1 29:-1 30:-1 31:-1 32:-1 33:-1 34:-1 35:-1 36:-1 37:-1 38:-1 39:-1 40:-1 41:-1 42:-1 43:-1 44:-1 45:-0.931839 46:-1 47:-1 48:-1 49:-1 50:-0.978466 51:-1 52:-0.977942 53:-1 54:-1 55:-0.999395 56:-0.998799 57:-0.994066 
65536 1:-1 2:-1 3:-1 4:-1 5:-1 6:-1 7:-1 8:-1 9:-1 10:-1 11:-1 12:-1 13:-1 14:-1 15:-1 16:-1 17:-1 18:-1 19:-0.768533 20:-1 21:-0.609361 22:-1 23:-1 24:-1 25:-1 26:-1 27:-1 28:-1 29:-1 30:-1 31:-1 32:-1 33:-1 34:-1 35:-1 36:-1 37:-1 38:-1 39:-1 40:-1 41:-1 42:-1 43:-1 44:-1 45:-1 46:-1 47:-1 48:-1 49:-1 50:-1 51:-1 52:-0.957033 53:-1 54:-1 55:-0.993995 56:-0.997197 57:-0.993056 
65536 1:-1 2:-1 3:-0.905882 4:-1 5:-0.856 6:-1 7:-1 8:-1 9:-0.81749 10:-1 11:-1 12:-0.900724 13:-1 14:-1 15:-1 16:-1 17:-1 18:-0.788779 19:-0.8976 20:-1 21:-0.870387 22:-1 23:-1 24:-1 25:-1 26:-1 27:-1 28:-1 29:-1 30:-1 31:-1 32:-1 33:-1 34:-1 35:-1 36:-1 37:-1 38:-1 39:-1 40:-1 41:-1 42:-1 43:-1 44:-1 45:-0.977591 46:-1 47:-1 48:-1 49:-1 50:-1 51:-1 52:-0.96571 53:-1 54:-1 55:-0.998656 56:-0.990589 57:-0.982323 
65536 1:-1 2:-0.960784 3:-1 4:-1 5:-1 6:-1 7:-1 8:-1 9:-1 10:-1 11:-1 12:-0.88211 13:-1 14:-1 15:-1 16:-1 17:-1 18:-1 19:-1 20:-1 21:-1 22:-1 23:-1 24:-1 25:-1 26:-1 27:-1 28:-0.938394 29:-1 30:-1 31:-1 32:-1 33:-1 34:-1 35:-1 36:-0.778934 37:-1 38:-1 39:-0.883077 40:-1 41:-1 42:-1 43:-1 44:-1 45:-1 46:-0.931737 47:-1 48:-1 49:-1 50:-0.978876 51:-1 52:-1 53:-1 54:-1 55:-0.997427 56:-0.993592 57:-0.979672 
65536 1:-1 2:-1 3:-0.72549 4:-1 5:-1 6:-1 7:-1 8:-1 9:-1 10:-1 11:-1 12:-1 13:-1 14:-1 15:-1 16:-0.862205 17:-1 18:-1 19:-1 20:-1 21:-1 22:-1 23:-1 24:-1 25:-0.932789 26:-0.915966 27:-1 28:-1 29:-1 30:-1 31:-1 32:-1 33:-1 34:-1 35:-1 36:-1 37:-1 38:-1 39:-1 40:-1 41:-1 42:-1 43:-1 44:-1 45:-1 46:-1 47:-1 48:-1 49:-1 50:-1 51:-1 52:-0.96571 53:-1 54:-1 55:-0.999395 56:-0.999399 57:-0.998106 
2029.282842276673 1:-1 2:-0.943978 3:-0.843137 4:-1 5:-0.92 6:-1 7:-0.889959 8:-1 9:-1 10:-0.567957 11:-1 12:-1 13:-1 14:-1 15:-0.72028 16:-0.84252 17:-1 18:-1 19:-0.786667 20:-0.873418 21:-0.639964 22:-1 23:-1 24:-1 25:-1 26:-1 27:-1 28:-1 29:-1 30:-1 31:-0.831933 32:-1 33:-0.955996 34:-1 35:-1 36:-1 37:-1 38:-1 39:-1 40:-0.831933 41:-1 42:-1 43:-1 44:-1 45:-1 46:-1 47:-1 48:-1 49:-1 50:-0.95242 51:-1 52:-0.987873 53:-0.961353 54:-1 55:-0.994448 56:-0.989387 57:-0.97399 
23.31368418749035 1:-1 2:-1 3:-1 4:-1 5:-0.688 6:-1 7:-0.570839 8:-1 9:-1 10:-1 11:-1 12:-1 13:-1 14:-1 15:-1 16:-1 17:-1 18:-1 19:-0.8336 20:-1 21:-1 22:-1 23:-1 24:-1 25:-1 26:-1 27:-1 28:-1 29:-1 30:-1 31:-1 32:-1 33:-1 34:-1 35:-1 36:-1 37:-1 38:-1 39:-1 40:-1 41:-1 42:-1 43:-1 44:-1 45:-1 46:-1 47:-1 48:-1 49:-1 50:-1 51:-1 52:-0.919816 53:-0.915042 54:-1 55:-0.987139 56:-0.983981 57:-0.987879 
65536 1:-1 2:-0.92577 3:-1 4:-1 5:-1 6:-0.819728 7:-0.854195 8:-1 9:-1 10:-1 11:-1 12:-1 13:-1 14:-1 15:-1 16:-1 17:-1 18:-0.647965 19:-0.7152 20:-1 21:-0.711971 22:-1 23:-1 24:-1 25:-1 26:-1 27:-1 28:-1 29:-1 30:-1 31:-1 32:-1 33:-1 34:-1 35:-1 36:-1 37:-1 38:-1 39:-1 40:-1 41:-1 42:-1 43:-1 44:-1 45:-1 46:-1 47:-1 48:-1 49:-1 50:-0.947703 51:-1 52:-1 53:-1 54:-1 55:-0.997946 56:-0.997797 57:-0.989899 
65536 1:0.0704846 2:-1 3:-1 4:-1 5:-1 6:-1 7:-1 8:-1 9:-1 10:-1 11:-1 12:-1 13:-1 14:-1 15:-1 16:-1 17:-1 18:-1 19:-1 20:-1 21:-1 22:-1 23:-1 24:-1 25:-1 26:-1 27:-1 28:-1 29:-1 30:-1 31:-1 32:-1 33:-1 34:-1 35:-1 36:-1 37:-1 38:-1 39:-1 40:-1 41:-1 42:-1 43:-1 44:-1 45:-1 46:-1 47:-1 48:-1 49:-1 50:-1 51:-1 52:-1 53:-1 54:-1 55:-0.995159 56:-0.997597 57:-0.994571 
149.0320891556089 1:-1 2:-1 3:-1 4:-1 5:-0.792 6:-0.646259 7:-1 8:-1 9:-1 10:-1 11:-1 12:-1 13:-1 14:-1 15:-1 16:0.230315 17:-1 18:-1 19:-0.556267 20:-1 21:-1 22:-1 23:-1 24:-1 25:-1 26:-1 27:-1 28:-1 29:-1 30:-1 31:-1 32:-1 33:-1 34:-1 35:-1 36:-1 37:-1 38:-1 39:-1 40:-1 41:-1 42:-1 43:-1 44:-1 45:-1 46:-1 47:-1 48:-1 49:-1 50:-1 51:-1 52:-0.419267 53:-1 54:-1 55:-0.995869 56:-0.997397 57:-0.988131 
3277.995319022516 1:-1 2:-1 3:-1 4:-1 5:-1 6:-1 7:-1 8:-1 9:-1 10:-1 11:-1 12:-1 13:-1 14:-1 15:-1 16:0.968504 17:-1 18:-1 19:-1 20:-1 21:-1 22:-1 23:-1 24:-1 25:-1 26:-1 27:-1 28:-1 29:-1 30:-1 31:-1 32:-1 33:-1 34:-1 35:-1 36:-1 37:-1 38:-1 39:-1 40:-1 41:-1 42:-1 43:-1 44:-1 45:-1 46:-1 47:-1 48:-1 49:-1 50:-1 51:-1 52:-1 53:-1 54:-1 55:-0.999223 56:-0.999399 57:-0.998864 
65536 1:-0.881057 2:-1 3:-0.894118 4:-1 5:-1 6:-1 7:-1 8:-1 9:-1 10:-0.951395 11:-0.793103 12:-0.886246 13:-1 14:-1 15:-1 16:-1 17:-1 18:-1 19:-0.765333 20:-1 21:-0.951395 22:-1 23:-1 24:-1 25:-1 26:-1 27:-1 28:-1 29:-1 30:-1 31:-1 32:-1 33:-1 34:-1 35:-1 36:-1 37:-0.564356 38:-1 39:-1 40:-1 41:-1 42:-1 43:-1 44:-1 45:-1 46:-1 47:-1 48:-1 49:-1 50:-1 51:-1 52:-0.985782 53:-0.939364 54:-1 55:-0.986914 56:-0.994193 57:-0.945202 
65536 1:-1 2:-1 3:-1 4:-1 5:-1 6:-1 7:-1 8:-1 9:-1 10:-1 11:-1 12:-1 13:-0.672072 14:-1 15:-1 16:-1 17:-1 18:-1 19:-0.902933 20:-1 21:-1 22:-1 23:-1 24:-1 25:-1 26:-1 27:-1 28:-1 29:-1 30:-1 31:-1 32:-1 33:-1 34:-1 35:-1 36:-1 37:-1 38:-1 39:-1 40:-1 41:-1 42:-1 43:-1 44:-1 45:-1 46:-1 47:-1 48:-1 49:-1 50:-0.970673 51:-1 52:-0.940097 53:-1 54:-1 55:-0.996579 56:-0.996596 57:-0.990657 
65536 1:-1 2:-0.927171 3:-0.796078 4:-1 5:-0.896 6:-1 7:-1 8:-1 9:-1 10:-1 11:-1 12:-1 13:-1 14:-1 15:-1 16:-0.897638 17:-1 18:-1 19:-0.8336 20:-1 21:-1 22:-1 23:-1 24:-1 25:-1 26:-1 27:-1 28:-1 29:-1 30:-1 31:-1 32:-1 33:-1 34:-1 35:-1 36:-1 37:-1 38:-1 39:-1 40:-1 41:-1 42:-1 43:-1 44:-1 45:-1 46:-1 47:-1 48:-1 49:-1 50:-0.960623 51:-1 52:-0.909362 53:-1 54:-1 55:-0.997785 56:-0.996195 57:-0.983586 
65536 1:-1 2:-1 3:-0.847059 4:-1 5:-0.844 6:-1 7:-1 8:-0.989199 9:-0.977186 10:-0.965797 11:-0.900383 12:-0.946225 13:-0.953153 14:-1 15:-1 16:-1 17:-1 18:-1 19:-0.965867 20:-1 21:-0.989199 22:-1 23:-1 24:-1 25:-1 26:-1 27:-1 28:-1 29:-1 30:-0.979592 31:-1 32:-1 33:-1 34:-1 35:-1 36:-1 37:-1 38:-1 39:-1 40:-1 41:-1 42:-1 43:-0.966387 44:-1 45:-1 46:-1 47:-1 48:-1 49:-1 50:-0.993437 51:-1 52:-1 53:-0.989339 54:-1 55:-0.999626 56:-0.997197 57:-0.969823 
3091.087192719805 1:-1 2:-1 3:-1 4:-1 5:-0.232 6:-1 7:-1 8:-0.769577 9:-1 10:-1 11:-1 12:-0.735264 13:-1 14:-1 15:-1 16:-1 17:-1 18:-1 19:-0.726933 20:-1 21:-0.769577 22:-1 23:-1 24:-1 25:-1 26:-1 27:-1 28:-1 29:-1 30:-1 31:-1 32:-1 33:-1 34:-1 35:-1 36:-1 37:-1 38:-1 39:-1 40:-1 41:-1 42:-1 43:-1 44:-1 45:-1 46:-1 47:-1 48:-1 49:-1 50:-1 51:-1 52:-0.978778 53:-1 54:-1 55:-0.998264 56:-0.998198 57:-0.994444 
65536 1:-1 2:-1 3:-1 4:-1 5:-1 6:-1 7:-1 8:-1 9:-1 10:-1 11:-1 12:-1 13:-1 14:-0.83 15:-1 16:-1 17:-1 18:-1 19:-0.909333 20:-1 21:-1 22:-1 23:-1 24:-1 25:-1 26:-1 27:-1 28:-1 29:-1 30:-1 31:-1 32:-1 33:-1 34:-1 35:-1 36:-1 37:-1 38:-1 39:-1 40:-1 41:-1 42:-1 43:-1 44:-1 45:-1 46:-1 47:-1 48:-1 49:-1 50:-0.974159 51:-1 52:-1 53:-1 54:-1 55:-0.994689 56:-0.989988 57:-0.986742 
65536 1:-1 2:-1 3:-1 4:-1 5:-1 6:-1 7:-1 8:-1 9:-1 10:-1 11:-1 12:-0.706308 13:-1 14:-1 15:-1 16:-0.720472 17:-1 18:-1 19:-1 20:-1 21:-1 22:-1 23:-1 24:-1 25:-1 26:-1 27:-1 28:-1 29:-1 30:-1 31:-1 32:-1 33:-1 34:-1 35:-1 36:-1 37:-1 38:-1 39:-1 40:-1 41:-1 42:-1 43:-1 44:-1 45:-1 46:-1 47:-1 48:-1 49:-1 50:-1 51:-1 52:-1 53:-1 54:-1 55:-0.998079 56:-0.999199 57:-0.995707 
1289.895064339751 1:-1 2:-0.957983 3:-0.882353 4:-1 5:-0.878 6:-0.897959 7:-1 8:-1 9:-1 10:-0.945995 11:-0.770115 12:-0.937952 13:-1 14:-1 15:-1 16:-0.818898 17:-1 18:-1 19:-0.934933 20:-1 21:-1 22:-1 23:-1 24:-1 25:-1 26:-1 27:-1 28:-1 29:-1 30:0.14966 31:-1 32:-1 33:-1 34:-1 35:-1 36:-1 37:-1 38:-1 39:-1 40:-1 41:-1 42:-1 43:-1 44:-0.963986 45:-1 46:-1 47:-1 48:-1 49:-1 50:-0.980722 51:-1 52:-1 53:-1 54:-1 55:-0.997928 56:-0.992591 57:-0.973359 
25837.54728929535 1:-1 2:-1 3:-1 4:-1 5:-1 6:-0.863946 7:-1 8:-1 9:-1 10:-0.854185 11:-1 12:-1 13:-1 14:-1 15:-1 16:-0.92126 17:-1 18:-1 19:-0.869867 20:-1 21:-1 22:-1 23:-0.853211 24:-1 25:-1 26:-1 27:-1 28:-1 29:-1 30:-1 31:-1 32:-1 33:-1 34:-1 35:-1 36:-1 37:-1 38:-1 39:-1 40:-1 41:-1 42:-1 43:-1 44:-1 45:-1 46:-1 47:-1 48:-1 49:-0.909692 50:-0.891509 51:-0.762333 52:-0.979301 53:-1 54:-1 55:-0.992703 56:-0.996596 57:-0.967172 
65536 1:-0.942731 2:-0.981793 3:-0.898039 4:-1 5:-0.948 6:-0.911565 7:-1 8:-0.976598 9:-0.851711 10:-0.976598 11:-0.900383 12:-0.919338 13:-1 14:-1 15:-1 16:-0.974409 17:-1 18:-1 19:-0.749333 20:-1 21:-0.976598 22:-1 23:-1 24:-0.9584 25:-1 26:-1 27:-1 28:-1 29:-1 30:-1 31:-1 32:-1 33:-1 34:-1 35:-1 36:-1 37:-1 38:-1 39:-1 40:-1 41:-1 42:-1 43:-1 44:-1 45:-1 46:-1 47:-1 48:-1 49:-1 50:-0.971903 51:-1 52:-1 53:-0.977345 54:-1 55:-0.996848 56:-0.994193 57:-0.941035 
65536 1:-1 2:-1 3:-0.52549 4:-1 5:-1 6:-1 7:-1 8:-1 9:-1 10:-1 11:-1 12:-1 13:-1 14:-1 15:-1 16:-1 17:-1 18:-1 19:-1 20:-1 21:-1 22:-1 23:-1 24:-1 25:-1 26:-1 27:-1 28:-1 29:-1 30:-1 31:-1 32:-1 33:-1 34:-1 35:-1 36:-1 37:-1 38:-1 39:-1 40:-1 41:-1 42:-1 43:-1 44:-1 45:-0.887021 46:-1 47:-1 48:-1 49:-0.903307 50:-0.956522 51:-1 52:-1 53:-0.929369 54:-1 55:-0.995875 56:-0.995394 57:-0.991035 
5569.715251044019 1:-1 2:-0.94958 3:-0.717647 4:-1 5:-0.712 6:-1 7:-0.900963 8:-1 9:-1 10:-0.740774 11:-0.448276 12:-0.925543 13:-0.87027 14:-1 15:-1 16:-1 17:-1 18:-1 19:-0.691733 20:-1 21:-0.609361 22:-1 23:-1 24:-1 25:-1 26:-1 27:-1 28:-1 29:-1 30:-1 31:-1 32:-1 33:-1 34:-1 35:-1 36:-1 37:-1 38:-1 39:-1 40:-1 41:-1 42:-1 43:-1 44:-1 45:-1 46:-1 47:-1 48:-1 49:-1 50:-1 51:-1 52:-1 53:-1 54:-0.746129 55:-0.989678 56:-0.988186 57:-0.970581 
717.1683568502241 1:-0.810573 2:-1 3:-0.831373 4:-1 5:-0.914 6:-0.853741 7:-1 8:-1 9:-1 10:-0.843384 11:-1 12:-0.911065 13:-1 14:-1 15:-1 16:-1 17:-0.022409 18:-1 19:-0.860267 20:-1 21:-0.686769 22:-1 23:-0.519266 24:-1 25:-1 26:-1 27:-0.974197 28:-1 29:-1 30:-1 31:-1 32:-1 33:-1 34:-1 35:-1 36:-1 37:-1 38:-1 39:-1 40:-1 41:-1 42:-1 43:-1 44:-1 45:-1 46:-1 47:-1 48:-1 49:-1 50:-1 51:-1 52:-0.968846 53:-0.950358 54:-0.992536 55:-0.99645 56:-0.990789 57:-0.983333 
22339.91052698753 1:-1 2:-1 3:-1 4:-1 5:-1 6:-1 7:-1 8:-1 9:-1 10:-1 11:-1 12:-1 13:-1 14:-0.64 15:-1 16:-1 17:-0.831933 18:-1 19:-0.872 20:-1 21:-1 22:-1 23:-1 24:-1 25:-1 26:-1 27:-1 28:-0.735974 29:-1 30:-1 31:-1 32:-1 33:-1 34:-1 35:-1 36:-1 37:-1 38:-1 39:-1 40:-1 41:-1 42:-1 43:-1 44:-0.927971 45:-1 46:-0.784431 47:-1 48:-1 49:-1 50:-0.938679 51:-1 52:-1 53:-1 54:-0.979928 55:-0.99734 56:-0.994594 57:-0.986742 
144.3440039717469 1:-1 2:-1 3:-1 4:-1 5:-1 6:-1 7:-0.361761 8:-1 9:-1 10:-1 11:-1 12:-1 13:-1 14:-1 15:-1 16:-1 17:-1 18:-1 19:-0.504 20:-1 21:-0.162916 22:-1 23:-1 24:-1 25:-1 26:-1 27:-1 28:-1 29:-1 30:-1 31:-1 32:-1 33:-1 34:-1 35:-1 36:-1 37:-1 38:-1 39:-1 40:-1 41:-1 42:-1 43:-1 44:-1 45:-1 46:-1 47:-1 48:-1 49:-1 50:-1 51:-1 52:-0.926716 53:-0.883392 54:-1 55:-0.999212 56:-0.998999 57:-0.99596 
968.3703717777369 1:-1 2:-1 3:-1 4:-1 5:-0.524 6:-1 7:-1 8:-0.571557 9:-0.095057 10:-0.571557 11:-1 12:-1 13:-1 14:-1 15:-1 16:-1 17:1 18:-1 19:-1 20:-0.246835 21:-0.571557 22:-1 23:-1 24:-1 25:-1 26:-1 27:-1 28:-1 29:-1 30:-1 31:-1 32:-1 33:-1 34:-1 35:-1 36:-1 37:-1 38:-1 39:-1 40:-1 41:-1 42:-1 43:-1 44:-1 45:-1 46:-1 47:-1 48:-1 49:-1 50:-1 51:-1 52:-0.958601 53:-1 54:-1 55:-0.960574 56:-0.970364 57:-0.980051 
16736.12008355317 1:-1 2:-0.889356 3:-1 4:-1 5:-1 6:-1 7:-1 8:-1 9:-1 10:-1 11:-1 12:-1 13:-1 14:-1 15:-1 16:-0.844488 17:-0.557423 18:-0.652365 19:-0.5776 20:-1 21:-0.715572 22:-1 23:-1 24:-1 25:-1 26:-1 27:-1 28:-1 29:-1 30:-1 31:-1 32:-1 33:-1 34:-1 35:-1 36:-1 37:-1 38:-1 39:-1 40:-1 41:-1 42:-1 43:-1 44:-1 45:-0.926237 46:-1 47:-1 48:-1 49:-1 50:-0.945037 51:-1 52:-0.971983 53:-1 54:-1 55:-0.996704 56:-0.994994 57:-0.986616 
19775.99035785566 1:-1 2:-1 3:-1 4:-1 5:-1 6:-1 7:-0.694635 8:-1 9:-1 10:-0.80018 11:-1 12:-1 13:-1 14:-1 15:-1 16:-1 17:-1 18:-1 19:-0.7632 20:-1 21:-0.80018 22:-1 23:-1 24:-1 25:-1 26:-1 27:-1 28:-1 29:-1 30:-1 31:-1 32:-1 33:-1 34:-1 35:-1 36:-1 37:-1 38:-1 39:-1 40:-1 41:-1 42:-1 43:-1 44:-1 45:-1 46:-1 47:-1 48:-1 49:-1 50:-0.958573 51:-1 52:-0.978882 53:-1 54:-1 55:-0.994553 56:-0.996996 57:-0.995076 
65536 1:-1 2:-1 3:-1 4:-1 5:-1 6:-1 7:-1 8:-1 9:-1 10:-1 11:-1 12:-1 13:-1 14:-1 15:-1 16:-1 17:-1 18:-1 19:-0.8624 20:-1 21:-0.884788 22:-1 23:-1 24:-1 25:-1 26:-1 27:-1 28:-1 29:-1 30:-1 31:-1 32:-1 33:-1 34:-1 35:-1 36:-1 37:-1 38:-1 39:-1 40:-1 41:-1 42:-1 43:-1 44:-1 45:-1 46:-1 47:-1 48:-1 49:-1 50:-1 51:-1 52:-1 53:-1 54:-1 55:-0.999813 56:-0.9996 57:-0.996086 
10745.19744087278 1:-1 2:-1 3:-1 4:-1 5:-0.702 6:-1 7:-1 8:-1 9:-1 10:-1 11:-1 12:-1 13:-1 14:-1 15:-1 16:-0.413386 17:-1 18:-0.672167 19:-1 20:-1 21:-0.731773 22:-1 23:-1 24:-1 25:-0.856937 26:-0.821128 27:-1 28:-1 29:-1 30:-1 31:-1 32:-1 33:-1 34:-1 35:-1 36:-1 37:-1 38:-1 39:-1 40:-1 41:-1 42:-1 43:-1 44:-1 45:-1 46:-1 47:-1 48:-1 49:-1 50:-1 51:-1 52:-1 53:-1 54:-1 55:-0.999818 56:-0.9998 57:-0.998737 
62453.26153342477 1:-1 2:-1 3:-1 4:-1 5:-1 6:-1 7:-1 8:-1 9:-1 10:-1 11:-1 12:-1 13:-1 14:-1 15:-1 16:-1 17:-1 18:-1 19:-0.546667 20:-1 21:-0.618362 22:-1 23:-1 24:-1 25:-1 26:-1 27:-1 28:-1 29:-1 30:-1 31:-1 32:-1 33:-0.766777 34:-1 35:-1 36:-1 37:-1 38:-1 39:-1 40:-1 41:-1 42:-1 43:-1 44:-1 45:-1 46:-1 47:-1 48:-1 49:-1 50:-1 51:-1 52:-1 53:-1 54:-1 55:-0.993645 56:-0.994994 57:-0.994444 
65536 1:-1 2:-1 3:-0.305882 4:-1 5:-1 6:-1 7:-1 8:-1 9:-1 10:-1 11:-1 12:-0.877973 13:-1 14:-1 15:-1 16:-1 17:-1 18:-0.870187 19:-0.5584 20:-1 21:-0.787579 22:-1 23:-1 24:-1 25:-1 26:-1 27:-1 28:-1 29:-1 30:-1 31:-1 32:-1 33:-0.935094 34:-1 35:-1 36:-1 37:-1 38:-1 39:-1 40:-1 41:-1 42:-1 43:-1 44:-1 45:-1 46:-1 47:-1 48:-1 49:-1 50:-0.966161 51:-1 52:-0.982751 53:-0.97268 54:-1 55:-0.997594 56:-0.996996 57:-0.9875 
5252.484515783613 1:-1 2:-0.997199 3:-0.980392 4:-1 5:-0.996 6:-1 7:-1 8:-0.990999 9:-1 10:-0.936994 11:-1 12:-0.995863 13:-1 14:-1 15:-1 16:-0.990157 17:-0.971989 18:-0.916392 19:-0.992533 20:-0.936709 21:-0.969397 22:-1 23:-1 24:-1 25:-0.99808 26:-1 27:-1 28:-1 29:-1 30:-1 31:-1 32:-1 33:-1 34:-1 35:-1 36:-1 37:-1 38:-1 39:-1 40:-1 41:-1 42:-1 43:-1 44:-1 45:-1 46:-1 47:-1 48:-1 49:-1 50:-0.99918 51:-1 52:-0.988814 53:-0.994336 54:-0.998285 55:-0.994695 56:-0.902283 57:-0.587121 
14494.82163364194 1:-1 2:-0.935574 3:-0.819608 4:-1 5:-0.44 6:-1 7:-1 8:-1 9:-1 10:-1 11:-1 12:-0.710445 13:-1 14:-1 15:-1 16:-0.724409 17:-1 18:-0.691969 19:-0.8016 20:-1 21:-0.917192 22:-1 23:-1 24:-1 25:-1 26:-1 27:-1 28:-1 29:-1 30:-1 31:-1 32:-1 33:-1 34:-1 35:-1 36:-1 37:-0.631683 38:-1 39:-1 40:-1 41:-1 42:-1 43:-1 44:-1 45:-1 46:-1 47:-1 48:-1 49:-1 50:-0.969647 51:-1 52:-0.922639 53:-1 54:-1 55:-0.996962 56:-0.995995 57:-0.982576 
65536 1:-1 2:-1 3:-1 4:-1 5:-0.912 6:-1 7:-1 8:-1 9:-1 10:-0.841584 11:-1 12:-1 13:-1 14:-1 15:-1 16:-0.913386 17:-1 18:-1 19:-0.8592 20:-1 21:-1 22:-1 23:-1 24:-1 25:-1 26:-1 27:-1 28:-0.90319 29:-1 30:-1 31:-1 32:-1 33:-1 34:-1 35:-1 36:-1 37:-1 38:-1 39:-1 40:-1 41:-1 42:-1 43:-1 44:-1 45:-1 46:-0.947305 47:-1 48:-1 49:-1 50:-1 51:-1 52:-1 53:-1 54:-1 55:-0.998473 56:-0.998198 57:-0.976641 
21763.85742240665 1:-1 2:-0.731092 3:-1 4:-1 5:-0.616 6:-1 7:-1 8:-1 9:-1 10:-1 11:-1 12:-0.602896 13:-1 14:-1 15:-1 16:-1 17:-1 18:-1 19:-0.7952 20:-1 21:-0.308731 22:-1 23:-1 24:-1 25:-1 26:-1 27:-1 28:-1 29:-1 30:-1 31:-1 32:-1 33:-1 34:-1 35:-1 36:-1 37:-1 38:-1 39:-1 40:-1 41:-1 42:-1 43:-1 44:-1 45:-1 46:-1 47:-1 48:-1 49:-1 50:-1 51:-1 52:-1 53:-1 54:-1 55:-0.996823 56:-0.997797 57:-0.99596 
17080.99061656531 1:-0.784141 2:-1 3:-0.905882 4:-1 5:-0.952 6:-1 7:-1 8:-0.868587 9:-1 10:-1 11:-1 12:-0.898656 13:-1 14:-1 15:-1 16:-1 17:-1 18:-1 19:-0.477333 20:-1 21:-0.780378 22:-1 23:-1 24:-1 25:-1 26:-1 27:-1 28:-1 29:-1 30:-1 31:-1 32:-1 33:-1 34:-1 35:-1 36:-1 37:-1 38:-1 39:-1 40:-1 41:-1 42:-1 43:-1 44:-1 45:-1 46:-1 47:-1 48:-1 49:-1 50:-1 51:-1 52:-0.943129 53:-0.974346 54:-1 55:-0.998084 56:-0.995795 57:-0.986111 
4681.157541176884 1:-0.748899 2:-1 3:-0.32549 4:-1 5:-1 6:-1 7:-1 8:-0.89739 9:-1 10:-1 11:-1 12:-0.88211 13:-0.38018 14:-1 15:-1 16:-1 17:-0.840336 18:-1 19:-0.5104 20:-1 21:-1 22:-1 23:-1 24:-0.9088 25:-1 26:-1 27:-1 28:-1 29:-1 30:-1 31:-1 32:-1 33:-1 34:-1 35:-1 36:-1 37:-1 38:-1 39:-1 40:-1 41:-1 42:-1 43:-1 44:-1 45:-1 46:-1 47:-1 48:-1 49:-1 50:-0.979696 51:-1 52:-0.958601 53:-0.967016 54:-1 55:-0.99758 56:-0.997998 57:-0.991288 
32255.49815602436 1:-0.960352 2:-0.987395 3:-0.552941 4:-1 5:-0.924 6:-1 7:-1 8:-0.983798 9:-1 10:-0.965797 11:-0.708812 12:-0.960703 13:-1 14:-1 15:-1 16:-0.870079 17:-1 18:-1 19:-0.837867 20:-1 21:-0.744374 22:-1 23:-1 24:-1 25:-1 26:-1 27:-1 28:-1 29:-1 30:-1 31:-1 32:-1 33:-1 34:-1 35:-1 36:-1 37:-1 38:-1 39:-1 40:-1 41:-1 42:-1 43:-0.787115 44:-1 45:-1 46:-1 47:-1 48:-1 49:-0.979932 50:-0.9879 51:-1 52:-0.938215 53:-1 54:-1 55:-0.99586 56:-0.993993 57:-0.902778 
14575.48044621872 1:-0.453744 2:-1 3:-1 4:-1 5:-1 6:-1 7:-1 8:-1 9:-1 10:-0.888389 11:-1 12:-0.743537 13:-1 14:-1 15:-1 16:-0.877953 17:-1 18:-1 19:-0.8016 20:-1 21:-0.441944 22:-1 23:-1 24:-1 25:-1 26:-1 27:-1 28:-1 29:-1 30:-1 31:-1 32:-1 33:-1 34:-1 35:-1 36:-1 37:-1 38:-1 39:-1 40:-1 41:-1 42:-1 43:-1 44:-1 45:-0.88422 46:-1 47:-1 48:-1 49:-1 50:-0.979491 51:-1 52:-0.884481 53:-0.933033 54:-1 55:-0.978386 56:-0.969163 57:-0.965909 
18122.9677028738 1:-0.889868 2:-1 3:-0.901961 4:-1 5:-1 6:-1 7:-0.931224 8:-1 9:-0.707224 10:-0.720972 11:-1 12:-0.894519 13:-1 14:-1 15:-1 16:-0.950787 17:-1 18:-1 19:-0.834667 20:-1 21:-0.908191 22:-1 23:-1 24:-1 25:-1 26:-1 27:-1 28:-1 29:-1 30:-1 31:-1 32:-1 33:-1 34:-1 35:-1 36:-1 37:-0.489109 38:-1 39:-1 40:-1 41:-1 42:-1 43:-1 44:-1 45:-1 46:-1 47:-1 48:-1 49:-1 50:-0.917145 51:-1 52:-0.983169 53:-0.94636 54:-0.995966 55:-0.984325 56:-0.978174 57:-0.927146 
6477.686961792932 1:-0.674009 2:-0.896359 3:-0.709804 4:-1 5:-1 6:-1 7:-0.898212 8:-1 9:-0.859316 10:-0.79838 11:-0.141762 12:-0.768356 13:-1 14:-1 15:-1 16:-1 17:-1 18:-0.837184 19:-0.681067 20:-1 21:-0.59676 22:-1 23:-1 24:-0.9408 25:-1 26:-1 27:-1 28:-1 29:-1 30:-1 31:-1 32:-1 33:-1 34:-1 35:-1 36:-1 37:-1 38:-1 39:-1 40:-1 41:-1 42:-1 43:-1 44:-1 45:-1 46:-1 47:-1 48:-1 49:-1 50:-1 51:-0.956068 52:-0.993623 53:-0.959354 54:-1 55:-0.993233 56:-0.988787 57:-0.973864 
1801.561460586842 1:-1 2:-0.886555 3:-0.760784 4:-1 5:-1 6:-0.653061 7:-1 8:-0.963996 9:-0.847909 10:-0.890189 11:-1 12:-0.534643 13:-1 14:-1 15:-1 16:-1 17:-0.829132 18:-1 19:-0.694933 20:-1 21:-0.816382 22:-1 23:-1 24:-0.968 25:-1 26:-1 27:-0.987999 28:-1 29:-1 30:-1 31:-1 32:-1 33:-1 34:-1 35:-1 36:-1 37:-1 38:-1 39:-1 40:-1 41:-1 42:-1 43:-1 44:-1 45:-1 46:-1 47:-1 48:-1 49:-1 50:-0.980517 51:-1 52:-0.983482 53:-0.97901 54:-1 55:-0.998184 56:-0.993993 57:-0.980429 
65536 1:-1 2:-1 3:-1 4:-1 5:-1 6:-1 7:-1 8:-1 9:-1 10:-1 11:-1 12:-1 13:-1 14:-1 15:-1 16:-1 17:-1 18:-1 19:-1 20:-1 21:-1 22:-1 23:-1 24:-1 25:-1 26:-1 27:-1 28:-1 29:-1 30:-1 31:-1 32:-1 33:-1 34:-1 35:-1 36:-1 37:-1 38:-1 39:-1 40:-1 41:-1 42:-1 43:-1 44:-1 45:-1 46:-1 47:-1 48:-1 49:-1 50:-1 51:-1 52:-1 53:-1 54:-1 55:-0.999517 56:-0.999399 57:-0.997727 
65536 1:-1 2:-1 3:-1 4:-1 5:-1 6:-1 7:-1 8:-1 9:-1 10:-1 11:-1 12:-1 13:-1 14:-1 15:-1 16:-1 17:-1 18:-1 19:-1 20:-1 21:-1 22:-1 23:-1 24:-1 25:-1 26:-1 27:-1 28:-1 29:-1 30:-1 31:-1 32:-1 33:-1 34:-1 35:-1 36:-1 37:-1 38:-1 39:-1 40:-1 41:-1 42:-1 43:-1 44:-1 45:-1 46:-1 47:-1 48:-1 49:-1 50:-0.850492 51:-1 52:-0.923789 53:-1 54:-1 55:-0.994856 56:-0.998398 57:-0.997222 
65536 1:-1 2:-1 3:-0.341176 4:-1 5:-0.934 6:-1 7:-1 8:-1 9:-1 10:-0.940594 11:-1 12:-1 13:-1 14:-1 15:-1 16:-0.935039 17:-1 18:-1 19:-0.784533 20:-1 21:-0.879388 22:-1 23:-1 24:-1 25:-1 26:-1 27:-1 28:-1 29:-1 30:-1 31:-1 32:-1 33:-1 34:-1 35:-1 36:-1 37:-1 38:-1 39:-1 40:-1 41:-1 42:-1 43:-1 44:-1 45:-0.969188 46:-1 47:-1 48:-1 49:-1 50:-0.987695 51:-1 52:-0.949401 53:-1 54:-1 55:-0.998555 56:-0.996396 57:-0.974495 
921.5602472793753 1:-0.69163 2:-1 3:-0.72549 4:-1 5:-0.434 6:-1 7:-1 8:-1 9:-1 10:-1 11:-1 12:-1 13:-1 14:-1 15:-1 16:-1 17:-1 18:-0.845985 19:-0.6224 20:-1 21:-0.618362 22:-1 23:-1 24:-1 25:-1 26:-1 27:-1 28:-1 29:-1 30:-1 31:-1 32:-1 33:-1 34:-1 35:-1 36:-1 37:-1 38:-1 39:-1 40:-1 41:-1 42:-1 43:-1 44:-1 45:-1 46:-1 47:-1 48:-1 49:-1 50:-1 51:-1 52:-0.9885 53:-1 54:-1 55:-0.999849 56:-0.9996 57:-0.996843 
65536 1:-1 2:-0.955182 3:-1 4:-1 5:-1 6:-1 7:-1 8:-1 9:-0.878327 10:-1 11:-1 12:-0.733195 13:-1 14:-1 15:-1 16:-1 17:-1 18:-1 19:-1 20:-1 21:-1 22:-1 23:-1 24:-1 25:-1 26:-1 27:-1 28:-1 29:-1 30:-1 31:-1 32:-1 33:-1 34:-1 35:-1 36:-1 37:-1 38:-1 39:-1 40:-1 41:-1 42:-1 43:-1 44:-1 45:-1 46:-1 47:-1 48:-1 49:-1 50:-0.992412 51:-1 52:-1 53:-1 54:-1 55:-0.997474 56:-0.992992 57:-0.986237 
923.8511565519675 1:-1 2:-1 3:-0.486275 4:-1 5:-1 6:-1 7:-1 8:-1 9:-1 10:-1 11:-1 12:-0.729059 13:-1 14:-1 15:-1 16:-1 17:-1 18:-1 19:-0.860267 20:-1 21:-0.0531053 22:-1 23:-1 24:-0.7904 25:-1 26:-1 27:-1 28:-1 29:-1 30:-1 31:-1 32:-1 33:-1 34:-1 35:-1 36:-1 37:-1 38:-1 39:-1 40:-1 41:-1 42:-1 43:-1 44:-1 45:-1 46:-1 47:-1 48:-1 49:-1 50:-1 51:-1 52:-1 53:-0.933033 54:-1 55:-0.993645 56:-0.995194 57:-0.993308 
3973.775836937109 1:-1 2:-0.896359 3:-1 4:-1 5:-1 6:-0.493197 7:-0.796424 8:-1 9:-1 10:-1 11:-1 12:-1 13:-1 14:-1 15:-1 16:-1 17:-1 18:-0.509351 19:-0.841067 20:-1 21:-1 22:-1 23:-1 24:-1 25:-1 26:-1 27:-1 28:-1 29:-1 30:-1 31:-1 32:-1 33:-1 34:-1 35:-1 36:-1 37:-1 38:-1 39:-1 40:-1 41:-1 42:-1 43:-1 44:-1 45:-1 46:-1 47:-1 48:-1 49:-1 50:-0.937039 51:-1 52:-1 53:-1 54:-1 55:-0.99566 56:-0.991189 57:-0.982576 
2282.568091787386 1:-1 2:-1 3:-0.933333 4:-0.975707 5:-0.966 6:-1 7:-0.953232 8:-1 9:-0.737643 10:-0.969397 11:-0.869732 12:-1 13:-1 14:-1 15:-1 16:-0.65748 17:-1 18:-0.848185 19:-0.889067 20:-1 21:-0.969397 22:-1 23:-1 24:-1 25:-0.983677 26:-1 27:-1 28:-1 29:-1 30:-1 31:-1 32:-1 33:-1 34:-0.928571 35:-1 36:-1 37:-0.865347 38:-1 39:-1 40:-0.928571 41:-1 42:-1 43:-1 44:-1 45:-1 46:-1 47:-1 48:-1 49:-1 50:-0.985234 51:-1 52:-0.921175 53:-0.773113 54:-1 55:-0.993209 56:-0.989788 57:-0.87803 
65536 1:-1 2:-1 3:-1 4:-1 5:-0.958 6:-1 7:-1 8:-1 9:-1 10:-1 11:-1 12:-1 13:-1 14:-1 15:-1 16:-1 17:-1 18:-1 19:-1 20:-1 21:-1 22:-0.975439 23:-1 24:-1 25:-1 26:-1 27:-1 28:-1 29:-1 30:-1 31:-1 32:-1 33:-1 34:-1 35:-1 36:-1 37:-1 38:-1 39:-1 40:-1 41:-1 42:-1 43:-1 44:-1 45:-1 46:-1 47:-1 48:-1 49:-1 50:-0.957957 51:-1 52:-0.996446 53:-1 54:-1 55:-0.996064 56:-0.997197 57:-0.957323 
1290.10823567011 1:-1 2:-1 3:-0.533333 4:-1 5:-1 6:-1 7:-1 8:-1 9:-1 10:-1 11:-1 12:-1 13:-1 14:-1 15:-1 16:-1 17:-1 18:-1 19:-0.937067 20:-1 21:-0.461746 22:-1 23:-1 24:-1 25:-1 26:-1 27:-1 28:-1 29:-1 30:-1 31:-1 32:-1 33:-1 34:-1 35:-1 36:-1 37:-1 38:-1 39:-1 40:-1 41:-1 42:-1 43:-1 44:-1 45:-1 46:-1 47:-1 48:-1 49:-1 50:-0.980927 51:-0.866042 52:-0.941561 53:-0.907046 54:-1 55:-0.997645 56:-0.997797 57:-0.98649 
14628.39135165784 1:-1 2:-0.945378 3:-0.847059 4:-1 5:-0.962 6:-1 7:-1 8:-0.965797 9:-1 10:-1 11:-0.701149 12:-0.919338 13:-1 14:-1 15:-1 16:-0.807087 17:-0.946779 18:-0.914191 19:-0.937067 20:-1 21:-0.859586 22:-1 23:-0.930275 24:-1 25:-1 26:-1 27:-1 28:-1 29:-1 30:-1 31:-1 32:-1 33:-1 34:-1 35:-1 36:-1 37:-1 38:-1 39:-1 40:-0.920168 41:-1 42:-1 43:-1 44:-1 45:-1 46:-1 47:-1 48:-1 49:-1 50:-0.973749 51:-1 52:-0.983273 53:-0.946693 54:-1 55:-0.997952 56:-0.993993 57:-0.907955 
65536 1:-1 2:-1 3:-1 4:-1 5:-1 6:-1 7:-1 8:-1 9:-1 10:-1 11:-1 12:-0.851086 13:-1 14:-1 15:-1 16:-1 17:-1 18:-1 19:-1 20:-1 21:-1 22:-1 23:-1 24:-1 25:-1 26:-1 27:-1 28:-0.894389 29:-1 30:-1 31:-1 32:-1 33:-1 34:-1 35:-1 36:-0.937581 37:-1 38:-1 39:-0.901538 40:-1 41:-1 42:-1 43:-1 44:-1 45:-1 46:-1 47:-1 48:-1 49:-1 50:-0.962059 51:-1 52:-1 53:-1 54:-1 55:-0.996728 56:-0.992591 57:-0.969697 
65536 1:-1 2:-0.973389 3:-0.847059 4:-1 5:-1 6:-1 7:-0.94773 8:-1 9:-1 10:-1 11:-1 12:-1 13:-1 14:-1 15:-1 16:-1 17:-1 18:-0.958196 19:-0.748267 20:-1 21:-0.787579 22:-1 23:-1 24:-0.9696 25:-1 26:-1 27:-1 28:-1 29:-1 30:-1 31:-1 32:-1 33:-1 34:-1 35:-1 36:-1 37:-1 38:-1 39:-1 40:-1 41:-1 42:-1 43:-1 44:-1 45:-1 46:-1 47:-1 48:-1 49:-1 50:-0.993847 51:-1 52:-0.98411 53:-1 54:-1 55:-0.999352 56:-0.996396 57:-0.981439 
55929.44237297567 1:-1 2:-0.87395 3:-1 4:-1 5:-1 6:-1 7:-1 8:-1 9:-1 10:-1 11:-1 12:-0.813857 13:-1 14:-1 15:-1 16:-1 17:-1 18:-0.60176 19:-0.3216 20:-1 21:-0.837984 22:-1 23:-1 24:-1 25:-1 26:-1 27:-1 28:-1 29:-1 30:-1 31:-1 32:-1 33:-1 34:-1 35:-1 36:-1 37:-1 38:-1 39:-1 40:-1 41:-1 42:-1 43:-1 44:-1 45:-1 46:-1 47:-1 48:-1 49:-1 50:-0.970057 51:-1 52:-0.969474 53:-1 54:-1 55:-0.996369 56:-0.992591 57:-0.990657 
31010.1584938923 1:-1 2:-1 3:-1 4:-1 5:-0.848 6:-0.870748 7:-0.895461 8:-0.931593 9:-1 10:-1 11:-0.708812 12:-1 13:-1 14:-1 15:-1 16:-0.925197 17:-1 18:-1 19:-0.630933 20:-1 21:-0.654365 22:-1 23:-1 24:-1 25:-1 26:-1 27:-1 28:-1 29:-1 30:-1 31:-1 32:-1 33:-1 34:-1 35:-1 36:-1 37:-1 38:-1 39:-1 40:-1 41:-1 42:-1 43:-1 44:-1 45:-0.964519 46:-1 47:-1 48:-1 49:-1 50:-1 51:-1 52:-0.987769 53:-1 54:-1 55:-0.998074 56:-0.997797 57:-0.987374 
65536 1:-1 2:-1 3:-1 4:-1 5:-1 6:-1 7:-1 8:-1 9:-1 10:-1 11:-1 12:-1 13:-1 14:-1 15:-1 16:-0.334646 17:-1 18:-1 19:-0.639467 20:-1 21:-1 22:-1 23:-1 24:-1 25:-1 26:-1 27:-1 28:-1 29:-1 30:-1 31:-1 32:-1 33:-1 34:-1 35:-1 36:-1 37:-1 38:-1 39:-1 40:-1 41:-1 42:-1 43:-1 44:-1 45:-1 46:-1 47:-1 48:-1 49:-1 50:-1 51:-1 52:-0.908839 53:-1 54:-1 55:-0.997821 56:-0.999199 57:-0.998737 
5943.266156716401 1:-1 2:-0.89916 3:-0.717647 4:-1 5:-1 6:-1 7:-1 8:-0.738974 9:-1 10:-1 11:-0.448276 12:-1 13:-1 14:-1 15:-1 16:-0.427165 17:-1 18:-0.841584 19:-0.845333 20:-1 21:-1 22:-1 23:-0.73578 24:-1 25:-1 26:-1 27:-1 28:-1 29:-1 30:-1 31:-1 32:-1 33:-1 34:-1 35:-1 36:-1 37:-1 38:-1 39:-1 40:-1 41:-1 42:-1 43:-1 44:-1 45:-1 46:-1 47:-1 48:-1 49:-1 50:-0.974774 51:-1 52:-0.948252 53:-1 54:-1 55:-0.999047 56:-0.998598 57:-0.992424 
1039.001056720383 1:-1 2:-1 3:-1 4:-1 5:-1 6:-0.619048 7:-1 8:-1 9:-1 10:-0.79838 11:-1 12:-1 13:-1 14:-1 15:-1 16:-1 17:-1 18:-0.753575 19:-0.761067 20:-1 21:-0.79838 22:-1 23:-0.588991 24:-1 25:-1 26:-1 27:-1 28:-1 29:-1 30:-1 31:-1 32:-1 33:-1 34:-1 35:-1 36:-1 37:-1 38:-1 39:-1 40:-1 41:-1 42:-1 43:-1 44:-1 45:-1 46:-1 47:-1 48:-1 49:-1 50:-0.923093 51:-1 52:-1 53:1 54:-1 55:-0.995007 56:-0.997397 57:-0.994444 
65536 1:-1 2:-1 3:-0.623529 4:-1 5:-1 6:-1 7:-1 8:-1 9:-1 10:-1 11:-1 12:-0.900724 13:-1 14:-1 15:-1 16:-0.811024 17:-1 18:-0.894389 19:-0.3824 20:-1 21:-0.652565 22:-1 23:-1 24:-1 25:-1 26:-1 27:-1 28:-1 29:-1 30:-1 31:-1 32:-1 33:-1 34:-1 35:-1 36:-1 37:-1 38:-1 39:-1 40:-1 41:-1 42:-1 43:-1 44:-1 45:-0.955182 46:-1 47:-1 48:-1 49:-1 50:-0.982363 51:-1 52:-0.972819 53:-0.971348 54:-1 55:-0.999788 56:-0.999399 57:-0.995328 
4840.474883915752 1:-1 2:-0.939776 3:-0.831373 4:-1 5:-0.914 6:-1 7:-1 8:-1 9:-1 10:-1 11:-1 12:-0.911065 13:-1 14:-1 15:-1 16:-0.915354 17:-1 18:-0.810781 19:-0.8624 20:-1 21:-0.845185 22:-1 23:-1 24:-1 25:-1 26:-1 27:-1 28:-1 29:-1 30:-1 31:-1 32:-1 33:-1 34:-1 35:-1 36:-1 37:-1 38:-1 39:-1 40:-1 41:-1 42:-1 43:-1 44:-1 45:-1 46:-1 47:-1 48:-1 49:-1 50:-0.969852 51:-1 52:-0.923057 53:-1 54:-1 55:-0.996714 56:-0.987986 57:-0.972096 
39951.69059052414 1:-1 2:-1 3:-1 4:-1 5:-1 6:-0.360544 7:-1 8:-1 9:-1 10:-1 11:-1 12:-1 13:-1 14:-1 15:-1 16:-1 17:-1 18:-1 19:-0.597867 20:-1 21:-0.661566 22:-1 23:-1 24:-1 25:-1 26:-1 27:-1 28:-1 29:-1 30:-1 31:-1 32:-1 33:-1 34:-1 35:-1 36:-1 37:-1 38:-1 39:-1 40:-1 41:-1 42:-1 43:-1 44:-1 45:-1 46:-1 47:-1 48:-1 49:-1 50:-1 51:-1 52:-1 53:-1 54:-1 55:-0.997627 56:-0.996996 57:-0.996338 
65536 1:-1 2:-1 3:-0.156863 4:-1 5:-0.786 6:-1 7:-1 8:-1 9:-1 10:-1 11:-1 12:-1 13:-1 14:-1 15:-1 16:-1 17:-1 18:-1 19:-0.885867 20:-1 21:-0.807381 22:-1 23:-1 24:-1 25:-1 26:-1 27:-1 28:-1 29:-1 30:-1 31:-1 32:-1 33:-1 34:-1 35:-1 36:-1 37:-1 38:-1 39:-1 40:-1 41:-1 42:-1 43:-1 44:-1 45:-1 46:-1 47:-1 48:-1 49:-1 50:-1 51:-1 52:-0.979928 53:-1 54:-1 55:-0.99758 56:-0.996396 57:-0.993939 
36987.01439842515 1:-1 2:-1 3:-0.882353 4:-1 5:-1 6:-1 7:-1 8:-1 9:-1 10:-0.945995 11:-1 12:-0.937952 13:-1 14:-1 15:-0.79021 16:-0.940945 17:-1 18:-0.966997 19:-0.984 20:-1 21:-0.972997 22:-1 23:-1 24:-1 25:-1 26:-1 27:-1 28:-1 29:-1 30:-1 31:-1 32:-1 33:-1 34:-1 35:-1 36:-1 37:-0.69901 38:-1 39:-1 40:-1 41:-1 42:-1 43:-1 44:-1 45:-1 46:-1 47:-1 48:-0.88 49:-0.784721 50:-0.986259 51:-1 52:-1 53:-0.985341 54:-0.993242 55:-0.998898 56:-0.996996 57:-0.947348 
65536 1:-1 2:-1 3:-1 4:-1 5:-1 6:-1 7:-1 8:-1 9:-1 10:-1 11:-1 12:-1 13:-1 14:-1 15:-1 16:-1 17:-1 18:-1 19:-1 20:-1 21:-1 22:-1 23:-1 24:-1 25:-1 26:-1 27:-1 28:-1 29:-1 30:-1 31:-1 32:-1 33:-1 34:-1 35:-1 36:-1 37:-1 38:-1 39:-1 40:-1 41:-1 42:-1 43:-1 44:-1 45:-1 46:-1 47:-1 48:-1 49:-1 50:-1 51:-1 52:-1 53:-1 54:-1 55:-0.996369 56:-0.996996 57:-0.99596 
29670.44487641199 1:-0.969163 2:-0.997199 3:-0.941176 4:-1 5:-0.95 6:-0.931973 7:-1 8:-0.9964 9:-0.942966 10:-1 11:-1 12:-0.948294 13:-0.90991 14:-0.986 15:-1 16:-0.990157 17:-0.938375 18:-1 19:-0.994667 20:-1 21:-0.9964 22:-1 23:-0.86422 24:-0.9968 25:-1 26:-1 27:-1 28:-1 29:-0.997199 30:-1 31:-1 32:-1 33:-1 34:-1 35:-1 36:-0.986996 37:-0.881188 38:-0.99 39:-1 40:-0.991597 41:-1 42:-1 43:-0.988796 44:-1 45:-0.998133 46:-1 47:-1 48:-1 49:-0.994983 50:-0.995488 51:-1 52:-1 53:-0.99267 54:-1 55:-0.999232 56:-0.996195 57:-0.878283 
65536 1:-1 2:-1 3:-1 4:-1 5:-0.804 6:-1 7:-1 8:-1 9:-1 10:-0.823582 11:-0.249042 12:-0.797311 13:-1 14:-1 15:-1 16:-0.807087 17:-1 18:-0.784378 19:-0.6864 20:-1 21:-0.647165 22:-1 23:-1 24:-1 25:-0.905905 26:-0.882353 27:-1 28:-1 29:-1 30:-1 31:-1 32:-1 33:-1 34:-1 35:-1 36:-1 37:-1 38:-1 39:-1 40:-1 41:-1 42:-1 43:-1 44:-1 45:-1 46:-0.882635 47:-1 48:-1 49:-1 50:-1 51:-1 52:-0.970937 53:-1 54:-1 55:-0.996459 56:-0.996596 57:-0.992677 
21288.73632571594 1:-1 2:-1 3:-1 4:-1 5:-0.708 6:-1 7:-0.771664 8:-1 9:-0.923954 10:-0.812781 11:-1 12:-0.915202 13:-1 14:-1 15:-1 16:-1 17:-1 18:-0.678768 19:-0.889067 20:-1 21:-0.963996 22:-1 23:-0.926606 24:-1 25:-0.859818 26:-0.82473 27:-1 28:-1 29:-1 30:-1 31:-1 32:-1 33:-1 34:-1 35:-1 36:-1 37:-1 38:-1 39:-0.958974 40:-1 41:-1 42:-1 43:-1 44:-1 45:-1 46:-1 47:-1 48:-1 49:-0.91699 50:-0.91776 51:-0.921498 52:-0.980973 53:-0.951358 54:-1 55:-0.994932 56:-0.994994 57:-0.954167 
65536 1:-1 2:-1 3:-1 4:-1 5:-1 6:-0.642857 7:-1 8:-1 9:-1 10:-1 11:-1 12:-0.892451 13:-1 14:-1 15:-1 16:-1 17:-1 18:-1 19:-1 20:-1 21:-1 22:-1 23:-1 24:-1 25:-1 26:-1 27:-1 28:-1 29:-1 30:-1 31:-1 32:-1 33:-1 34:-1 35:-1 36:-1 37:-1 38:-1 39:-1 40:-1 41:-1 42:-1 43:-1 44:-1 45:-1 46:-1 47:-1 48:-1 49:-1 50:-0.98831 51:-1 52:-1 53:-1 54:-1 55:-0.996959 56:-0.992992 57:-0.987626 
65536 1:-1 2:-1 3:-1 4:-1 5:-1 6:-1 7:-1 8:-1 9:-0.513308 10:-1 11:-1 12:-1 13:-1 14:-1 15:-1 16:-1 17:-1 18:-1 19:-0.863467 20:-1 21:-0.539154 22:-1 23:-1 24:-1 25:-1 26:-1 27:-0.923192 28:-1 29:-1 30:-1 31:-1 32:-1 33:-1 34:-1 35:-1 36:-1 37:-1 38:-1 39:-1 40:-1 41:-1 42:-1 43:-1 44:-1 45:-1 46:-1 47:-1 48:-1 49:-1 50:-1 51:-1 52:-0.936229 53:-1 54:-1 55:-0.9949 56:-0.994594 57:-0.990025 
22943.78430809039 1:-1 2:-0.920168 3:-1 4:-1 5:-1 6:-1 7:-1 8:-1 9:-1 10:-1 11:-0.563218 12:-0.88211 13:-0.585586 14:-1 15:-1 16:-1 17:-1 18:-0.619362 19:-0.630933 20:-1 21:-0.792979 22:-1 23:-1 24:-1 25:-1 26:-1 27:-1 28:-1 29:-1 30:-1 31:-1 32:-1 33:-1 34:-1 35:-1 36:-1 37:-1 38:-1 39:-1 40:-1 41:-1 42:-1 43:-1 44:-1 45:-1 46:-1 47:-1 48:-1 49:-1 50:-1 51:-1 52:-0.988814 53:-1 54:-1 55:-0.999236 56:-0.998799 57:-0.993308 
1.256473479913161 1:-1 2:-1 3:-0.913725 4:-0.669703 5:-1 6:-1 7:-1 8:-0.918992 9:-1 10:-1 11:-1 12:-1 13:-1 14:-1 15:-1 16:-0.911417 17:-1 18:-1 19:-0.976533 20:-1 21:-0.918992 22:-1 23:-1 24:-1 25:-1 26:-1 27:-1 28:-1 29:-1 30:-1 31:-1 32:-1 33:-1 34:-1 35:-1 36:-0.942783 37:-1 38:-1 39:-1 40:-1 41:-1 42:-1 43:-1 44:-1 45:-0.979458 46:-1 47:-1 48:-1 49:-0.930217 50:-0.981132 51:-1 52:-1 53:-1 54:-0.996974 55:-0.997331 56:-0.994794 57:-0.946465 
9526.675945003441 1:-1 2:-1 3:-1 4:-1 5:-0.854 6:-1 7:-1 8:-1 9:-1 10:-1 11:-1 12:-0.925543 13:-0.603604 14:-1 15:-1 16:-0.929134 17:-1 18:-1 19:-0.6064 20:-1 21:-0.868587 22:-1 23:-1 24:-0.9424 25:-1 26:-1 27:-1 28:-1 29:-1 30:-1 31:-1 32:-1 33:-1 34:-1 35:-1 36:-1 37:-1 38:-1 39:-1 40:-1 41:-1 42:-1 43:-1 44:-1 45:-1 46:-1 47:-1 48:-1 49:-1 50:-0.975595 51:-1 52:-0.975119 53:-0.980343 54:-1 55:-0.996496 56:-0.994393 57:-0.973485 
65536 1:-1 2:-1 3:-0.92549 4:-1 5:-1 6:-1 7:-0.94773 8:-1 9:-1 10:-1 11:-1 12:-0.960703 13:-1 14:-0.982 15:-1 16:-1 17:-1 18:-0.980198 19:-0.979733 20:-1 21:-0.983798 22:-1 23:-1 24:-1 25:-0.991359 26:-1 27:-1 28:-1 29:-1 30:-1 31:-1 32:-1 33:-0.979098 34:-1 35:-1 36:-1 37:-1 38:-0.955 39:-0.961026 40:-1 41:-1 42:-1 43:-1 44:-1 45:-1 46:-1 47:-0.917051 48:-1 49:-0.993158 50:-0.971903 51:-1 52:-0.993623 53:-1 54:-1 55:-0.995232 56:-0.99139 57:-0.875126 
5636.777810883505 1:-1 2:-1 3:-1 4:-1 5:-0.91 6:-1 7:-0.876204 8:-1 9:-0.657795 10:-0.918992 11:-0.655172 12:-0.813857 13:-0.837838 14:-1 15:-1 16:-0.643701 17:-1 18:-0.90099 19:-0.854933 20:-1 21:-0.755176 22:-1 23:-1 24:-1 25:-1 26:-1 27:-1 28:-1 29:-1 30:-1 31:-1 32:-1 33:-1 34:-1 35:-1 36:-1 37:-1 38:-1 39:-1 40:-0.810924 41:-1 42:-1 43:-1 44:-1 45:-0.957983 46:-1 47:-1 48:-1 49:-1 50:-0.967186 51:-1 52:-0.933093 53:-0.946693 54:-1 55:-0.995266 56:-0.985983 57:-0.976894 
24781.42107844263 1:-0.951542 2:-0.984594 3:-0.815686 4:-1 5:-1 6:-0.962585 7:-0.936726 8:-1 9:-0.86692 10:-0.936994 11:-0.915709 12:-0.805584 13:-0.96036 14:-1 15:-1 16:-0.978346 17:-1 18:-1 19:-0.598933 20:-1 21:-0.767777 22:-1 23:-1 24:-1 25:-1 26:-1 27:-1 28:-1 29:-1 30:-1 31:-1 32:-1 33:-1 34:-1 35:-1 36:-1 37:-1 38:-1 39:-1 40:-1 41:-1 42:-1 43:-1 44:-1 45:-0.978525 46:-1 47:-1 48:-1 49:-1 50:-0.952215 51:-1 52:-0.969996 53:-0.964351 54:-0.99647 55:-0.995571 56:-0.987385 57:-0.935859 
39639.92512474813 1:-1 2:-0.907563 3:-0.741176 4:-1 5:-0.934 6:-1 7:-1 8:-1 9:-1 10:-1 11:-1 12:-0.863495 13:-1 14:-1 15:-1 16:-0.935039 17:-1 18:-0.709571 19:-0.7184 20:-1 21:-0.762376 22:-1 23:-1 24:-1 25:-1 26:-1 27:-1 28:-1 29:-1 30:-1 31:-1 32:-1 33:-1 34:-1 35:-1 36:-1 37:-1 38:-1 39:-1 40:-1 41:-1 42:-1 43:-1 44:-1 45:-0.969188 46:-1 47:-1 48:-1 49:-1 50:-0.98913 51:-1 52:-0.939052 53:-1 54:-1 55:-0.994509 56:-0.975971 57:-0.958965 
33369.44629676153 1:-1 2:-0.917367 3:-1 4:-1 5:-1 6:-1 7:-0.837689 8:-1 9:-1 10:-0.893789 11:-1 12:-0.877973 13:-1 14:-1 15:-1 16:-1 17:-1 18:-0.740374 19:-0.8112 20:-1 21:-1 22:-1 23:-1 24:-1 25:-1 26:-1 27:-1 28:-1 29:-1 30:-1 31:-1 32:-1 33:-1 34:-1 35:-1 36:-1 37:-1 38:-1 39:-1 40:-1 41:-1 42:-1 43:-1 44:-1 45:-1 46:-1 47:-1 48:-1 49:-1 50:-0.947293 51:-1 52:-1 53:-1 54:-1 55:-0.986226 56:-0.986984 57:-0.968687 
7120.234851427885 1:-1 2:-1 3:-0.945098 4:-1 5:-0.942 6:-1 7:-0.961486 8:-1 9:-0.779468 10:-1 11:-0.777778 12:-1 13:-1 14:-1 15:-1 16:-0.82874 17:-1 18:-0.678768 19:-0.938133 20:-1 21:-1 22:-1 23:-1 24:-1 25:-1 26:-1 27:-1 28:-0.905391 29:-1 30:-1 31:-1 32:-1 33:-1 34:-1 35:-1 36:-1 37:-0.885149 38:-1 39:-1 40:-1 41:-1 42:-1 43:-1 44:-1 45:-1 46:-1 47:-1 48:-1 49:-1 50:-0.983593 51:-1 52:-0.92013 53:-0.738797 54:-0.997983 55:-0.992775 56:-0.991189 57:-0.848611 
65536 1:-1 2:-1 3:-1 4:-1 5:-0.838 6:-1 7:-1 8:-1 9:-1 10:-1 11:-1 12:-1 13:-1 14:-1 15:-1 16:-1 17:-1 18:-1 19:-0.9136 20:-1 21:-0.706571 22:-1 23:-1 24:-1 25:-1 26:-1 27:-1 28:-1 29:-1 30:-1 31:-1 32:-1 33:-1 34:-1 35:-1 36:-1 37:-1 38:-1 39:-1 40:-1 41:-1 42:-1 43:-1 44:-1 45:-1 46:-1 47:-1 48:-1 49:-1 50:-1 51:-1 52:-0.986932 53:-1 54:-1 55:-0.994787 56:-0.994994 57:-0.981061 
20623.95830640975 1:-1 2:-1 3:-1 4:-1 5:-0.782 6:-1 7:-1 8:-0.90279 9:-1 10:-1 11:-0.586207 12:-0.662875 13:-1 14:-0.946 15:-1 16:-1 17:-0.92437 18:-0.881188 19:-0.767467 20:-1 21:-0.90279 22:-1 23:-1 24:-1 25:-1 26:-1 27:-1 28:-1 29:-1 30:-1 31:-1 32:-1 33:-1 34:-1 35:-1 36:-0.929779 37:-1 38:-1 39:-1 40:-1 41:-1 42:-1 43:-1 44:-1 45:-1 46:-1 47:-1 48:-1 49:-1 50:-0.957342 51:-1 52:-0.982646 53:-0.972347 54:-1 55:-0.995423 56:-0.977373 57:-0.969444 
65536 1:-1 2:-1 3:-1 4:-1 5:-1 6:-1 7:-1 8:-1 9:-1 10:-1 11:-1 12:-0.625646 13:-1 14:-1 15:-1 16:-1 17:-1 18:-1 19:-1 20:-1 21:-0.674167 22:-1 23:-1 24:-1 25:-1 26:-1 27:-1 28:-1 29:-1 30:-1 31:-1 32:-1 33:-1 34:-1 35:-1 36:-1 37:-1 38:-1 39:-1 40:-1 41:-1 42:-1 43:-1 44:-1 45:-1 46:-1 47:-1 48:-1 49:-1 50:-1 51:-1 52:-0.967696 53:-1 54:-1 55:-0.999395 56:-0.997998 57:-0.993056 
65536 1:-1 2:-1 3:-1 4:-1 5:-0.958 6:-1 7:-1 8:-1 9:-1 10:-1 11:-1 12:-1 13:-1 14:-1 15:-1 16:-1 17:-1 18:-1 19:-1 20:-1 21:-1 22:-0.975439 23:-1 24:-1 25:-1 26:-1 27:-1 28:-1 29:-1 30:-1 31:-1 32:-1 33:-1 34:-1 35:-1 36:-1 37:-1 38:-1 39:-1 40:-1 41:-1 42:-1 43:-1 44:-1 45:-1 46:-1 47:-1 48:-1 49:-1 50:-0.957957 51:-1 52:-0.996446 53:-1 54:-1 55:-0.996064 56:-0.997197 57:-0.957323 
5162.604068256516 1:-1 2:-1 3:-1 4:-1 5:-1 6:-1 7:0.485557 8:-1 9:-1 10:-1 11:-1 12:-1 13:-1 14:-1 15:-1 16:0.0629921 17:-1 18:-0.80198 19:-0.808 20:-1 21:-0.837984 22:-1 23:-1 24:-1 25:-1 26:-1 27:-1 28:-1 29:-1 30:-1 31:-1 32:-1 33:-1 34:-1 35:-1 36:-1 37:-1 38:-1 39:-1 40:-1 41:-1 42:-1 43:-1 44:-1 45:-1 46:-1 47:-1 48:-1 49:-1 50:-1 51:-1 52:-0.91208 53:-0.930035 54:-1 55:-0.956813 56:-0.941129 57:-0.956313 
4521.924349541629 1:-1 2:-0.866947 3:-0.627451 4:-1 5:-1 6:-1 7:-1 8:-1 9:-1 10:-1 11:-1 12:-1 13:-1 14:-1 15:-1 16:-1 17:-1 18:-1 19:-0.949867 20:-0.851266 21:-0.657966 22:-1 23:-1 24:-0.9248 25:-1 26:-1 27:-1 28:-1 29:-1 30:-1 31:-1 32:-0.802521 33:-1 34:-1 35:-1 36:-1 37:-1 38:-1 39:-1 40:-1 41:-1 42:-1 43:-1 44:-1 45:-1 46:-1 47:-1 48:-1 49:-0.969897 50:-0.958983 51:-1 52:-0.972087 53:-1 54:-1 55:-0.994226 56:-0.991189 57:-0.94154 
1299.577716998087 1:-1 2:-1 3:-1 4:-1 5:-1 6:-1 7:-1 8:-0.40054 9:0.26616 10:-1 11:-1 12:-1 13:-1 14:-1 15:-1 16:-1 17:-0.0672269 18:-1 19:-1 20:-1 21:0.19892 22:-1 23:-1 24:-1 25:-1 26:-1 27:-1 28:-1 29:-1 30:-1 31:-1 32:-1 33:-1 34:-1 35:-1 36:-1 37:-1 38:-1 39:-1 40:-1 41:-1 42:-1 43:-1 44:-1 45:-1 46:-1 47:-1 48:-1 49:-1 50:-1 51:-1 52:-0.958601 53:-1 54:-0.960059 55:-0.995072 56:-0.997998 57:-0.996843 
163.4900191273526 1:-1 2:-1 3:-1 4:-1 5:-1 6:-1 7:-0.422283 8:-1 9:-1 10:-1 11:-1 12:-0.782834 13:-1 14:-1 15:-1 16:-1 17:-1 18:-1 19:-0.550933 20:-1 21:-1 22:-1 23:-1 24:-1 25:-1 26:-1 27:-1 28:-1 29:-1 30:-1 31:-1 32:-1 33:-1 34:-1 35:-1 36:-1 37:-1 38:-1 39:-1 40:-1 41:-1 42:-1 43:-1 44:-1 45:-1 46:-1 47:-1 48:-1 49:-1 50:-1 51:-1 52:-1 53:-1 54:-1 55:-0.996922 56:-0.997197 57:-0.992298 
65536 1:-1 2:-1 3:-1 4:-1 5:-0.976 6:-1 7:-1 8:-1 9:-1 10:-1 11:-1 12:-0.801448 13:-1 14:-1 15:-1 16:-0.976378 17:-0.966387 18:-0.973597 19:-0.9872 20:-1 21:-0.978398 22:-1 23:-1 24:-1 25:-1 26:-1 27:-1 28:-0.947195 29:-0.983193 30:-0.959184 31:-1 32:-1 33:-1 34:-1 35:-1 36:-0.843953 37:-1 38:-0.94 39:-1 40:-1 41:-1 42:-0.94958 43:-1 44:-1 45:-0.988796 46:-0.956886 47:-1 48:-1 49:-1 50:-0.92781 51:-1 52:-1 53:-1 54:-1 55:-0.997572 56:-0.99199 57:-0.936364 
43410.57299362176 1:-1 2:-1 3:-1 4:-1 5:-1 6:-1 7:-1 8:-0.438344 9:-1 10:-1 11:-1 12:-1 13:-1 14:-1 15:-1 16:-1 17:-1 18:-1 19:-1 20:-1 21:-1 22:-1 23:-1 24:-1 25:-1 26:-1 27:-1 28:-1 29:-1 30:-1 31:-1 32:-1 33:-1 34:-1 35:-1 36:-1 37:-1 38:-1 39:-1 40:-1 41:-1 42:-1 43:-1 44:-1 45:-0.902894 46:-1 47:-1 48:-1 49:-1 50:-0.961239 51:-1 52:-0.980241 53:-0.937031 54:-1 55:-0.994813 56:-0.995194 57:-0.989899 
65536 1:-1 2:-1 3:-1 4:-1 5:-1 6:-1 7:-1 8:-1 9:-1 10:-0.735374 11:-1 12:-0.695967 13:-1 14:-1 15:-1 16:-1 17:-1 18:-1 19:-0.216 20:-1 21:-0.735374 22:-1 23:-1 24:-1 25:-1 26:-1 27:-1 28:-1 29:-1 30:-1 31:-1 32:-1 33:-1 34:-1 35:-1 36:-1 37:-1 38:-1 39:-1 40:-1 41:-1 42:-1 43:-1 44:-1 45:-1 46:-1 47:-1 48:-1 49:-1 50:-1 51:-1 52:-1 53:-1 54:-1 55:-0.996788 56:-0.997197 57:-0.995581 
65536 1:-1 2:-0.833333 3:-1 4:-1 5:-1 6:-1 7:-1 8:-1 9:-1 10:-1 11:-1 12:-1 13:-1 14:-1 15:-1 16:-0.765748 17:-1 18:-1 19:-0.873067 20:-1 21:-1 22:-1 23:-1 24:-1 25:-1 26:-1 27:-1 28:-1 29:-1 30:-1 31:-1 32:-1 33:-1 34:-1 35:-1 36:-1 37:-1 38:-1 39:-1 40:-1 41:-1 42:-1 43:-1 44:-1 45:-1 46:-1 47:-1 48:-1 49:-1 50:-1 51:-1 52:-0.957869 53:-1 54:-1 55:-0.984049 56:-0.99179 57:-0.982828 
19759.61381137497 1:-1 2:-1 3:-1 4:-1 5:-1 6:-1 7:-1 8:-1 9:-1 10:-1 11:-1 12:0.253361 13:-1 14:-1 15:-1 16:-1 17:-1 18:-1 19:-0.0304 20:-1 21:-1 22:-1 23:-1 24:-1 25:-1 26:-1 27:-1 28:-1 29:-1 30:-1 31:-1 32:-1 33:-1 34:-1 35:-1 36:-1 37:-1 38:-1 39:-1 40:-1 41:-1 42:-1 43:-1 44:-1 45:-1 46:-1 47:-1 48:-1 49:-1 50:-1 51:-1 52:-1 53:-1 54:-1 55:-0.997458 56:-0.997397 57:-0.997096 
65536 1:-1 2:-1 3:-1 4:-1 5:-1 6:-1 7:-1 8:-1 9:-1 10:-1 11:-1 12:-1 13:-1 14:-1 15:-1 16:-1 17:-1 18:-1 19:-1 20:-1 21:-1 22:-1 23:-1 24:-1 25:-1 26:-1 27:-1 28:-1 29:-1 30:-1 31:-1 32:-1 33:-1 34:-1 35:-1 36:-1 37:-1 38:-1 39:-1 40:-1 41:-1 42:-1 43:-1 44:-1 45:-0.875817 46:-1 47:-1 48:-1 49:-1 50:-0.957342 51:-1 52:-0.956406 53:-0.930701 54:-1 55:-0.994894 56:-0.996996 57:-0.992424 
5542.870522791303 1:-1 2:-1 3:-1 4:-1 5:-1 6:-1 7:1 8:-1 9:-1 10:-1 11:-1 12:-1 13:-1 14:-1 15:-1 16:-1 17:-1 18:-1 19:-1 20:-1 21:-1 22:-1 23:-1 24:-1 25:-1 26:-1 27:-1 28:-1 29:-1 30:-1 31:-1 32:-1 33:-1 34:-1 35:-1 36:-1 37:-1 38:-1 39:-1 40:-1 41:-1 42:-1 43:-1 44:-1 45:-1 46:-1 47:-1 48:-1 49:-1 50:-1 51:-1 52:-0.968951 53:-1 54:-1 55:-0.998184 56:-0.998598 57:-0.993561 
1763.281250544997 1:-1 2:-0.931373 3:-1 4:-1 5:-1 6:-1 7:-1 8:-1 9:-0.0570342 10:-1 11:-1 12:-1 13:-1 14:-1 15:-1 16:-1 17:-1 18:-1 19:-0.947733 20:-1 21:-0.821782 22:-1 23:-1 24:-0.9216 25:-1 26:-1 27:-1 28:-1 29:-1 30:-1 31:-1 32:-1 33:-1 34:-1 35:-1 36:-1 37:-1 38:-1 39:-1 40:-1 41:-1 42:-1 43:-1 44:-1 45:-1 46:-1 47:-1 48:-1 49:-1 50:-0.9637 51:-1 52:-1 53:-0.911711 54:-0.991124 55:-0.98337 56:-0.977373 57:-0.943687 
65536 1:-1 2:-1 3:-0.780392 4:-1 5:-1 6:-0.938776 7:-1 8:-1 9:-1 10:-0.762376 11:-1 12:-0.844881 13:-0.72973 14:-0.964 15:-1 16:-0.964567 17:-1 18:-1 19:-0.899733 20:-1 21:-1 22:-1 23:-0.933945 24:-1 25:-1 26:-1 27:-1 28:-1 29:-1 30:-1 31:-1 32:-1 33:-1 34:-1 35:-1 36:-1 37:-1 38:-1 39:-1 40:-1 41:-1 42:-1 43:-1 44:-1 45:-1 46:-1 47:-1 48:-1 49:-1 50:-0.971288 51:-1 52:-0.992682 53:-0.976678 54:-1 55:-0.997066 56:-0.995595 57:-0.97601 
65536 1:-1 2:-1 3:-1 4:-1 5:-1 6:-1 7:-1 8:-1 9:-1 10:-1 11:-1 12:-1 13:-1 14:-1 15:-1 16:-1 17:-1 18:-1 19:-1 20:-1 21:-1 22:-1 23:-1 24:-1 25:-1 26:-1 27:-1 28:-1 29:-1 30:-1 31:-1 32:-1 33:-1 34:-1 35:-1 36:-1 37:-1 38:-1 39:-1 40:-1 41:-1 42:-1 43:-1 44:-1 45:-1 46:-1 47:-1 48:-1 49:-1 50:-1 51:-1 52:-0.816633 53:-1 54:-1 55:-1 56:-1 57:-0.999242 
65536 1:-1 2:-1 3:-1 4:-1 5:-1 6:-0.982993 7:-1 8:-0.938794 9:-1 10:-1 11:-0.915709 12:-0.832472 13:-0.981982 14:-0.978 15:-1 16:-1 17:-0.789916 18:-1 19:-1 20:-1 21:-1 22:-1 23:-0.981651 24:-1 25:-0.888622 26:-1 27:-1 28:-1 29:-1 30:-1 31:-1 32:-1 33:-0.994499 34:-1 35:-1 36:-0.940182 37:-0.980198 38:-1 39:-1 40:-1 41:-1 42:-1 43:-1 44:-1 45:-1 46:-1 47:-1 48:-1 49:-0.870924 50:-0.978056 51:-1 52:-1 53:-0.982342 54:-1 55:-0.998431 56:-0.993793 57:-0.885227 
65536 1:-1 2:-1 3:-1 4:-1 5:-1 6:-1 7:-1 8:-1 9:-1 10:-1 11:-1 12:-1 13:-1 14:-1 15:-1 16:-1 17:-1 18:-1 19:-0.656533 20:-1 21:-1 22:-1 23:-1 24:-1 25:-1 26:-1 27:-1 28:-1 29:-1 30:-1 31:-1 32:-1 33:-1 34:-1 35:-1 36:-1 37:-1 38:-1 39:-1 40:-1 41:-1 42:-1 43:-1 44:-1 45:-1 46:-1 47:-1 48:-1 49:-1 50:-1 51:-1 52:-0.94292 53:-1 54:-1 55:-0.99764 56:-0.998398 57:-0.997222 
65536 1:-1 2:-1 3:-1 4:-1 5:-1 6:-1 7:-1 8:-1 9:-1 10:-1 11:-1 12:-1 13:-1 14:-1 15:-1 16:-1 17:-1 18:-1 19:-1 20:-1 21:-1 22:-1 23:-1 24:-1 25:-1 26:-1 27:-1 28:-1 29:-1 30:-1 31:-1 32:-1 33:-1 34:-1 35:-1 36:-1 37:-1 38:-1 39:-1 40:-1 41:-1 42:-1 43:-1 44:-1 45:-1 46:-1 47:-1 48:-1 49:-1 50:-1 51:-1 52:-1 53:-1 54:-1 55:-1 56:-1 57:-0.999242 
8825.795158118675 1:-1 2:-1 3:-1 4:-1 5:-0.616 6:-1 7:-1 8:-1 9:-1 10:-0.884788 11:-0.264368 12:-0.735264 13:-1 14:-1 15:-1 16:-0.811024 17:-1 18:-0.929593 19:-0.589333 20:-1 21:-0.884788 22:-1 23:-1 24:-1 25:-1 26:-1 27:-1 28:-1 29:-1 30:-1 31:-1 32:-1 33:-1 34:-1 35:-1 36:-1 37:-1 38:-1 39:-1 40:-1 41:-1 42:-1 43:-1 44:-1 45:-1 46:-1 47:-1 48:-1 49:-1 50:-0.988925 51:-1 52:-0.982855 53:-0.982009 54:-1 55:-0.998782 56:-0.999399 57:-0.985985 
65536 1:-1 2:-1 3:-1 4:-1 5:-0.96 6:-1 7:-1 8:-1 9:-1 10:-1 11:-1 12:-1 13:-1 14:-1 15:-1 16:-1 17:-1 18:-1 19:-1 20:-1 21:-1 22:-0.976608 23:-1 24:-1 25:-1 26:-1 27:-1 28:-1 29:-1 30:-1 31:-1 32:-1 33:-1 34:-1 35:-1 36:-1 37:-1 38:-1 39:-1 40:-1 41:-1 42:-1 43:-1 44:-1 45:-1 46:-1 47:-1 48:-1 49:-1 50:-0.958162 51:-1 52:-0.996446 53:-1 54:-1 55:-0.997117 56:-0.997197 57:-0.965152 
65536 1:-1 2:-1 3:-0.827451 4:-1 5:-0.824 6:-0.92517 7:-1 8:-1 9:-1 10:-1 11:-1 12:-0.908997 13:-1 14:-0.956 15:-1 16:-1 17:-1 18:-1 19:-0.9296 20:-1 21:-0.920792 22:-1 23:-1 24:-1 25:-1 26:-1 27:-1 28:-1 29:-1 30:-0.77551 31:-1 32:-1 33:-1 34:-1 35:-1 36:-1 37:-1 38:-1 39:-1 40:-1 41:-1 42:-1 43:-1 44:-0.947179 45:-1 46:-1 47:-1 48:-1 49:-0.983124 50:-0.954061 51:-1 52:-1 53:-0.937698 54:-0.984972 55:-0.995671 56:-0.995995 57:-0.966793 
555.8436491603732 1:-1 2:-1 3:-1 4:-0.998131 5:-1 6:-1 7:-1 8:-1 9:-1 10:-1 11:-1 12:-1 13:-1 14:-1 15:-1 16:-0.996063 17:-1 18:-1 19:-0.997867 20:-1 21:-1 22:-1 23:-1 24:-1 25:-1 26:-1 27:-1 28:-1 29:-1 30:-1 31:-1 32:-1 33:-1 34:-1 35:-1 36:-1 37:-1 38:-1 39:-1 40:-1 41:-1 42:-1 43:-1 44:-1 45:-1 46:-1 47:-1 48:-1 49:-0.532953 50:1 51:-0.997839 52:-0.838796 53:-0.405297 54:-0.798477 55:-0.566825 56:1 57:0.270328 
17207.9289561126 1:-0.484581 2:-1 3:-1 4:-1 5:-1 6:-1 7:-1 8:-1 9:-1 10:-1 11:-1 12:-0.758014 13:-1 14:-1 15:-1 16:-1 17:-0.672269 18:-1 19:-0.624533 20:-1 21:-1 22:-1 23:-1 24:-1 25:-1 26:-1 27:-1 28:-1 29:-1 30:-1 31:-1 32:-1 33:-1 34:-1 35:-1 36:-1 37:-1 38:-1 39:-1 40:-1 41:-1 42:-1 43:-1 44:-1 45:-0.890756 46:-1 47:-1 48:-1 49:-1 50:-1 51:-1 52:-0.907375 53:-1 54:-1 55:-0.998246 56:-0.998198 57:-0.992677 
9149.905824437437 1:-1 2:-0.973389 3:-0.776471 4:-1 5:-0.982 6:-0.904762 7:-0.975241 8:-0.983798 9:-0.855513 10:-0.965797 11:-1 12:-0.88211 13:-0.794595 14:-1 15:-1 16:-0.962598 17:-1 18:-1 19:-0.7856 20:-1 21:-0.742574 22:-1 23:-1 24:-0.9696 25:-1 26:-1 27:-1 28:-1 29:-1 30:-1 31:-1 32:-1 33:-1 34:-1 35:-1 36:-1 37:-1 38:-1 39:-1 40:-1 41:-1 42:-1 43:-1 44:-1 45:-1 46:-1 47:-1 48:-1 49:-0.984036 50:-0.95283 51:-1 52:-0.9908 53:-0.958687 54:-1 55:-0.997449 56:-0.990188 57:-0.953662 
8155.093112739669 1:-1 2:-1 3:-1 4:-1 5:-1 6:-1 7:-1 8:-1 9:-1 10:-0.09991 11:-1 12:-1 13:-1 14:-1 15:-1 16:-1 17:-1 18:-1 19:-1 20:-1 21:-1 22:-1 23:-1 24:-1 25:-1 26:-1 27:-1 28:-1 29:-1 30:-1 31:-1 32:-1 33:-1 34:-1 35:-1 36:-1 37:-1 38:-1 39:-1 40:-1 41:-1 42:-1 43:-1 44:-1 45:-1 46:-1 47:-1 48:-1 49:-0.855416 50:-1 51:-1 52:-0.900476 53:-1 54:-1 55:-0.993059 56:-0.997597 57:-0.989773 
65536 1:-0.881057 2:-1 3:-0.937255 4:-1 5:-0.946 6:-1 7:-1 8:-0.990999 9:-1 10:-0.962196 11:-0.923372 12:-0.807653 13:-0.963964 14:-1 15:-1 16:-0.925197 17:-0.971989 18:-1 19:-0.696 20:-1 21:-0.783978 22:-1 23:-0.922936 24:-0.9744 25:-1 26:-1 27:-1 28:-1 29:-1 30:-1 31:-1 32:-1 33:-0.994499 34:-1 35:-1 36:-1 37:-0.960396 38:-1 39:-1 40:-1 41:-1 42:-1 43:-1 44:-1 45:-1 46:-1 47:-1 48:-1 49:-0.968985 50:-0.994053 51:-1 52:-0.998014 53:-0.980676 54:-0.999092 55:-0.995662 56:-0.988987 57:-0.932071 
2064.569839099006 1:-1 2:-1 3:-0.247059 4:-1 5:-1 6:-1 7:-1 8:-1 9:-1 10:-1 11:-1 12:-1 13:-1 14:-1 15:-1 16:-1 17:0.0756303 18:-1 19:-0.7952 20:-1 21:-0.654365 22:-1 23:-1 24:-1 25:-1 26:-1 27:-1 28:-1 29:-1 30:-1 31:-1 32:-1 33:-1 34:-1 35:-1 36:-1 37:-1 38:-1 39:-1 40:-1 41:-1 42:-1 43:-1 44:-1 45:-1 46:-1 47:-1 48:-1 49:-1 50:-1 51:-1 52:-0.860331 53:-1 54:-1 55:-0.999619 56:-0.9996 57:-0.997222 
878.3142100537328 1:-1 2:-1 3:-1 4:-1 5:-1 6:-1 7:-1 8:-0.879388 9:-1 10:-0.879388 11:-1 12:-1 13:-1 14:-1 15:-1 16:-1 17:-1 18:-1 19:-1 20:-1 21:-1 22:-1 23:-1 24:-1 25:-1 26:-1 27:-1 28:-1 29:-1 30:-1 31:-1 32:-1 33:-1 34:-1 35:-1 36:-1 37:-0.469307 38:-1 39:-1 40:-1 41:-1 42:-1 43:-1 44:-1 45:-1 46:-1 47:-1 48:-1 49:-0.922463 50:-0.895201 51:-0.938783 52:-0.946579 53:-1 54:-1 55:-0.993433 56:-0.994794 57:-0.972727 
935.9232632210844 1:-1 2:-1 3:-1 4:-1 5:-0.936 6:-0.782313 7:-1 8:-1 9:-1 10:-0.884788 11:-1 12:-0.933816 13:-1 14:-1 15:-1 16:-1 17:-1 18:-1 19:-0.793067 20:-1 21:-1 22:-1 23:-1 24:-1 25:-1 26:-1 27:-1 28:-1 29:-1 30:-0.670068 31:-1 32:-1 33:-1 34:-1 35:-1 36:-1 37:-1 38:-1 39:-1 40:-1 41:-1 42:-1 43:-1 44:-1 45:-1 46:-1 47:-1 48:-1 49:-1 50:-0.989336 51:-1 52:-0.972505 53:-0.965017 54:-1 55:-0.99561 56:-0.978174 57:-0.976389 
40568.99423517551 1:-1 2:-1 3:-1 4:-1 5:-0.874 6:-1 7:-0.914718 8:-0.886589 9:-0.882129 10:-0.886589 11:-0.762452 12:-0.935884 13:-0.888288 14:-1 15:-1 16:-0.938976 17:-1 18:-1 19:-0.6608 20:-1 21:-0.944194 22:-1 23:-1 24:-1 25:-1 26:-1 27:-1 28:-1 29:-1 30:-1 31:-1 32:-1 33:-1 34:-1 35:-1 36:-1 37:-1 38:-1 39:-1 40:-1 41:-1 42:-1 43:-1 44:-1 45:-1 46:-1 47:-1 48:-1 49:-1 50:-0.972313 51:-1 52:-0.985887 53:-1 54:-1 55:-0.995394 56:-0.992191 57:-0.97601 
4275.817416137334 1:-1 2:-1 3:-0.552941 4:-1 5:-1 6:-1 7:-0.686382 8:-1 9:-1 10:-1 11:-1 12:-1 13:-1 14:-1 15:-1 16:-1 17:-1 18:-1 19:-0.755733 20:-1 21:-0.587759 22:-1 23:-1 24:-1 25:-1 26:-1 27:-1 28:-1 29:-1 30:-1 31:-1 32:-1 33:-1 34:-1 35:-1 36:-1 37:-1 38:-1 39:-1 40:-1 41:-1 42:-1 43:-1 44:-1 45:-1 46:-1 47:-1 48:-1 49:-1 50:-0.959598 51:-1 52:-1 53:-1 54:-1 55:-0.999588 56:-0.998999 57:-0.996717 
15126.21957039001 1:-1 2:-1 3:-0.458824 4:-1 5:-1 6:-1 7:-1 8:-1 9:-1 10:-1 11:-1 12:-0.714581 13:-1 14:-1 15:-1 16:-0.454724 17:-1 18:-0.0847085 19:-0.556267 20:-1 21:-0.751575 22:-1 23:-1 24:-1 25:-1 26:-1 27:-1 28:-1 29:-1 30:-1 31:-1 32:-1 33:-1 34:-1 35:-1 36:-1 37:-1 38:-1 39:-1 40:-1 41:-1 42:-1 43:-1 44:-1 45:-1 46:-1 47:-1 48:-1 49:-1 50:-1 51:-1 52:-0.925252 53:-1 54:-1 55:-0.999671 56:-0.9998 57:-0.998485 
8288.404046003292 1:-1 2:-1 3:-1 4:-1 5:-1 6:-1 7:-1 8:-1 9:-1 10:-1 11:-1 12:-1 13:-1 14:-1 15:-1 16:-0.793307 17:-0.705882 18:-1 19:-0.664 20:-1 21:-0.621962 22:-1 23:-1 24:-1 25:-1 26:-1 27:-1 28:-1 29:-1 30:-1 31:-1 32:-1 33:-1 34:-1 35:-1 36:-1 37:-1 38:-1 39:-1 40:-1 41:-1 42:-1 43:-1 44:-1 45:-0.901961 46:-1 47:-1 48:-1 49:-1 50:-0.928015 51:-1 52:-0.963306 53:-0.941696 54:-1 55:-0.995746 56:-0.994594 57:-0.986616 
3565.831524150241 1:-1 2:-0.708683 3:-1 4:-1 5:-0.376 6:-1 7:-0.713893 8:-1 9:-1 10:-1 11:-1 12:-0.569804 13:-1 14:-1 15:-1 16:-1 17:-1 18:-0.0847085 19:-0.778133 20:-1 21:-0.812781 22:-1 23:-1 24:-1 25:-1 26:-1 27:-1 28:-1 29:-1 30:-1 31:-1 32:-1 33:-1 34:-1 35:-1 36:-1 37:-1 38:-1 39:-1 40:-1 41:-1 42:-1 43:-1 44:-1 45:-1 46:-1 47:-1 48:-1 49:-1 50:-1 51:-1 52:-0.972505 53:-1 54:-1 55:-0.999223 56:-0.999399 57:-0.997601 
44770.23628111203 1:-0.863436 2:-1 3:-1 4:-1 5:-0.812 6:-1 7:-1 8:-1 9:-1 10:-1 11:-0.762452 12:-1 13:-1 14:-1 15:-1 16:-0.938976 17:-1 18:-0.931793 19:-0.598933 20:-0.901899 21:-0.888389 22:-1 23:-1 24:-0.9008 25:-1 26:-1 27:-1 28:-1 29:-1 30:-1 31:-1 32:-1 33:-1 34:-1 35:-0.969 36:-1 37:-1 38:-1 39:-1 40:-1 41:-1 42:-1 43:-1 44:-1 45:-0.883287 46:-1 47:-1 48:-1 49:-1 50:-0.98872 51:-1 52:-0.99425 53:-0.963018 54:-1 55:-0.997534 56:-0.993793 57:-0.984343 
16788.00801827784 1:-1 2:-1 3:-1 4:-1 5:-1 6:-1 7:-1 8:-1 9:-1 10:-1 11:-1 12:-0.826267 13:-1 14:-1 15:-1 16:-1 17:-1 18:-1 19:-0.7312 20:-1 21:-0.69757 22:-1 23:-1 24:-1 25:-1 26:-1 27:-1 28:-1 29:-1 30:-1 31:-1 32:-1 33:-1 34:-1 35:-1 36:-0.781534 37:-1 38:-1 39:-1 40:-1 41:-1 42:-1 43:-1 44:-1 45:-1 46:-1 47:-1 48:-1 49:-1 50:-0.971493 51:-1 52:-1 53:-1 54:-1 55:-0.999448 56:-0.998999 57:-0.996338 
29546.33503723728 1:-1 2:-0.939776 3:-0.658824 4:-1 5:-1 6:-1 7:-1 8:-1 9:-0.836502 10:-0.922592 11:-0.670498 12:-1 13:-1 14:-1 15:-1 16:-1 17:-1 18:-1 19:-0.345067 20:-1 21:-0.922592 22:-1 23:-1 24:-0.8608 25:-1 26:-1 27:-1 28:-1 29:-1 30:-1 31:-1 32:-1 33:-1 34:-1 35:-1 36:-1 37:-1 38:-1 39:-1 40:-1 41:-1 42:-1 43:-1 44:-1 45:-1 46:-1 47:-1 48:-1 49:-0.965792 50:-0.984619 51:-1 52:-1 53:-0.949692 54:-1 55:-0.992581 56:-0.993592 57:-0.985354 
25683.09921927134 1:-0.92511 2:-1 3:-0.8 4:-1 5:-0.966 6:-1 7:-0.953232 8:-0.938794 9:-0.935361 10:-1 11:-1 12:-1 13:-1 14:-0.932 15:-1 16:-1 17:-1 18:-1 19:-1 20:-1 21:-1 22:-1 23:-0.875229 24:-1 25:-1 26:-1 27:-1 28:-1 29:-1 30:-1 31:-1 32:-1 33:-1 34:-1 35:-1 36:-1 37:-1 38:-1 39:-1 40:-1 41:-1 42:-1 43:-1 44:-1 45:-1 46:-1 47:-1 48:-1 49:-1 50:-0.994668 51:-1 52:-1 53:-1 54:-1 55:-0.998985 56:-0.998198 57:-0.981818 
2007.121365418309 1:-1 2:-1 3:-1 4:-1 5:-1 6:-1 7:-1 8:-1 9:-1 10:-0.333933 11:-1 12:-1 13:-1 14:-1 15:-1 16:-0.635827 17:-1 18:-1 19:-0.802667 20:-1 21:-1 22:-1 23:-1 24:-1 25:-1 26:-1 27:-1 28:-1 29:-1 30:-1 31:-1 32:-1 33:-1 34:-1 35:-1 36:-1 37:-1 38:-1 39:-1 40:-1 41:-1 42:-1 43:-1 44:-1 45:-1 46:-1 47:-1 48:-1 49:-0.882326 50:-1 51:-1 52:-0.837959 53:-1 54:-1 55:-0.993545 56:-0.997597 57:-0.989773 
24818.27092096901 1:-1 2:-1 3:-1 4:-1 5:-1 6:-0.908163 7:-1 8:-1 9:-0.688213 10:-1 11:-1 12:-0.944157 13:-1 14:-1 15:-1 16:-1 17:-1 18:-1 19:-1 20:-1 21:-1 22:-1 23:-1 24:-1 25:-1 26:-1 27:-1 28:-0.881188 29:-1 30:-1 31:-1 32:-1 33:-1 34:-1 35:-1 36:-0.859558 37:-1 38:-1 39:-0.889231 40:-1 41:-1 42:-1 43:-1 44:-1 45:-1 46:-1 47:-1 48:-1 49:-0.983124 50:-0.953651 51:-1 52:-0.996132 53:-1 54:-1 55:-0.996975 56:-0.993592 57:-0.973864 
65536 1:-1 2:-1 3:-1 4:-1 5:-0.826 6:-1 7:-1 8:-1 9:-1 10:-1 11:-1 12:-1 13:-1 14:-0.826 15:-1 16:-1 17:-1 18:-1 19:-0.9072 20:-1 21:-1 22:-1 23:-1 24:-1 25:-1 26:-1 27:-1 28:-1 29:-1 30:-1 31:-1 32:-1 33:-1 34:-1 35:-1 36:-1 37:-1 38:-1 39:-1 40:-1 41:-1 42:-1 43:-1 44:-1 45:-1 46:-1 47:-1 48:-1 49:-1 50:-0.972929 51:-1 52:-1 53:-1 54:-1 55:-0.994823 56:-0.989988 57:-0.986995 
50288.70262524828 1:-1 2:-1 3:-1 4:-1 5:-1 6:-1 7:-1 8:-1 9:-1 10:-1 11:-1 12:-1 13:-0.502703 14:-1 15:-1 16:-1 17:-1 18:-1 19:-1 20:-1 21:-0.751575 22:-1 23:-1 24:-1 25:-1 26:-1 27:-1 28:-1 29:-1 30:-1 31:-1 32:-1 33:-1 34:-1 35:-1 36:-1 37:-1 38:-1 39:-1 40:-1 41:-1 42:-1 43:-1 44:-1 45:-1 46:-1 47:-1 48:-1 49:-1 50:-1 51:-1 52:-0.949192 53:-1 54:-1 55:-0.996948 56:-0.997998 57:-0.992677 
65536 1:-1 2:-0.955182 3:-1 4:-1 5:-1 6:-1 7:-1 8:-1 9:-1 10:-1 11:-1 12:-0.865564 13:-1 14:-1 15:-1 16:-1 17:-1 18:-1 19:-1 20:-1 21:-1 22:-1 23:-1 24:-1 25:-1 26:-1 27:-1 28:-1 29:-1 30:-1 31:-1 32:-1 33:-1 34:-1 35:-1 36:-0.747724 37:-1 38:-1 39:-0.866667 40:-1 41:-1 42:-1 43:-1 44:-1 45:-1 46:-1 47:-1 48:-1 49:-1 50:-0.984619 51:-1 52:-1 53:-1 54:-1 55:-0.997696 56:-0.993592 57:-0.985227 
13045.80987593569 1:-0.947137 2:-0.966387 3:-0.952941 4:-1 5:-0.736 6:-0.877551 7:-1 8:-0.935194 9:-1 10:-1 11:-0.724138 12:-0.851086 13:-1 14:-1 15:-1 16:-1 17:-1 18:-1 19:-0.562667 20:-1 21:-0.458146 22:-1 23:-0.955963 24:-1 25:-1 26:-1 27:-1 28:-1 29:-1 30:-1 31:-1 32:-1 33:-0.986799 34:-1 35:-1 36:-1 37:-0.952475 38:-1 39:-1 40:-0.94958 41:-1 42:-1 43:-1 44:-1 45:-1 46:-1 47:-1 48:-1 49:-1 50:-0.9879 51:-1 52:-0.998014 53:-0.99367 54:-1 55:-0.998704 56:-0.993392 57:-0.977399 
22018.80998023286 1:-1 2:-1 3:-0.811765 4:-1 5:-0.856 6:-0.836735 7:-1 8:-1 9:-0.908745 10:-1 11:-0.632184 12:-0.950362 13:-1 14:-1 15:-1 16:-0.905512 17:-1 18:-0.947195 19:-0.870933 20:-1 21:-0.738974 22:-1 23:-0.823853 24:-0.9616 25:-1 26:-1 27:-1 28:-1 29:-1 30:-0.918367 31:-1 32:-1 33:-1 34:-1 35:-1 36:-1 37:-1 38:-1 39:-1 40:-0.89916 41:-1 42:-1 43:-0.865546 44:-1 45:-1 46:-1 47:-1 48:-0.904 49:-1 50:-0.992617 51:-1 52:-0.996236 53:-0.938697 54:-1 55:-0.997683 56:-0.986984 57:-0.967929 
31016.83557670871 1:-1 2:-1 3:-1 4:-1 5:-1 6:-1 7:-1 8:-0.774977 9:-1 10:-0.926193 11:-1 12:-1 13:-1 14:-1 15:-1 16:-0.919291 17:-1 18:-0.632563 19:-0.956267 20:-1 21:-0.926193 22:-1 23:-1 24:-1 25:-1 26:-1 27:-1 28:-1 29:-1 30:-1 31:-1 32:-1 33:-1 34:-1 35:-1 36:-0.893368 37:-1 38:-1 39:-1 40:-1 41:-1 42:-1 43:-1 44:-1 45:-1 46:-1 47:-1 48:-1 49:-1 50:-0.974364 51:-1 52:-0.967383 53:-0.979344 54:-1 55:-0.999134 56:-0.998598 57:-0.991919 
26835.27977877968 1:-1 2:-1 3:-1 4:-1 5:-1 6:-1 7:-1 8:-1 9:-1 10:-1 11:-1 12:-1 13:-1 14:-1 15:-1 16:-1 17:-1 18:-1 19:-0.537067 20:-1 21:-1 22:-1 23:-1 24:-1 25:-1 26:-1 27:-1 28:-1 29:-1 30:-1 31:-1 32:-1 33:-1 34:-1 35:-1 36:-1 37:-1 38:-1 39:-1 40:-1 41:-1 42:-1 43:-1 44:-1 45:-1 46:-1 47:-1 48:-1 49:-1 50:-1 51:-1 52:-0.180074 53:-1 54:-1 55:-0.998791 56:-0.999199 57:-0.998232 
1948.228319521894 1:-1 2:-1 3:-1 4:-1 5:-1 6:-1 7:-1 8:-1 9:-1 10:-1 11:-1 12:-1 13:-1 14:-0.048 15:-1 16:-0.0629921 17:-1 18:-1 19:-0.492267 20:-1 21:-0.571557 22:-1 23:-1 24:-1 25:-1 26:-1 27:-1 28:-1 29:-1 30:-1 31:-1 32:-1 33:-1 34:-1 35:-1 36:-1 37:-1 38:-1 39:-1 40:-1 41:-1 42:-1 43:-1 44:-1 45:-1 46:-1 47:-1 48:-1 49:-1 50:-1 51:-1 52:-1 53:-1 54:-1 55:-0.997503 56:-0.997998 57:-0.995328 
14638.53726786035 1:-1 2:-1 3:-0.584314 4:-1 5:-1 6:-1 7:-1 8:-1 9:-0.193916 10:-1 11:-1 12:-1 13:-1 14:-1 15:-1 16:-1 17:-1 18:-1 19:-0.659733 20:-1 21:-1 22:-1 23:-1 24:-1 25:-1 26:-1 27:-1 28:-1 29:-1 30:-1 31:-1 32:-1 33:-1 34:-1 35:-1 36:-1 37:-1 38:-1 39:-1 40:-1 41:-1 42:-1 43:-1 44:-1 45:-0.901027 46:-1 47:-1 48:-1 49:-1 50:-1 51:-1 52:-1 53:-0.882392 54:-1 55:-0.994727 56:-0.997797 57:-0.989773 
11800.5428739829 1:-1 2:-1 3:-0.486275 4:-1 5:-1 6:-1 7:-1 8:-1 9:-1 10:-1 11:-1 12:-0.729059 13:-1 14:-1 15:-1 16:-1 17:-1 18:-1 19:-0.860267 20:-1 21:-0.0531053 22:-1 23:-1 24:-0.7904 25:-1 26:-1 27:-1 28:-1 29:-1 30:-1 31:-1 32:-1 33:-1 34:-1 35:-1 36:-1 37:-1 38:-1 39:-1 40:-1 41:-1 42:-1 43:-1 44:-1 45:-1 46:-1 47:-1 48:-1 49:-1 50:-1 51:-1 52:-1 53:-0.933033 54:-1 55:-0.993645 56:-0.995194 57:-0.993308 
65536 1:-1 2:-1 3:-0.858824 4:-1 5:-0.88 6:-0.959184 7:-0.966988 8:-1 9:-1 10:-1 11:-0.908046 12:-0.900724 13:-0.956757 14:-0.976 15:-1 16:-0.976378 17:-1 18:-0.867987 19:-0.742933 20:-1 21:-0.956796 22:-1 23:-1 24:-1 25:-1 26:-1 27:-1 28:-1 29:-1 30:-1 31:-1 32:-1 33:-1 34:-1 35:-1 36:-1 37:-1 38:-1 39:-1 40:-1 41:-1 42:-1 43:-1 44:-1 45:-1 46:-1 47:-1 48:-1 49:-0.974458 50:-0.992412 51:-1 52:-0.994146 53:-0.968682 54:-1 55:-0.999553 56:-0.997397 57:-0.95101 
16844.83194257557 1:-1 2:-1 3:-1 4:-1 5:-1 6:-1 7:-1 8:-1 9:-1 10:-1 11:-1 12:-1 13:-1 14:-1 15:-1 16:-0.826772 17:-0.257703 18:-1 19:-0.906133 20:-1 21:-1 22:-1 23:-1 24:-1 25:-1 26:-1 27:-1 28:-1 29:-1 30:-1 31:-1 32:-1 33:-1 34:-1 35:-1 36:-1 37:-0.651485 38:-1 39:-1 40:-1 41:-1 42:-1 43:-1 44:-1 45:-1 46:-1 47:-1 48:-1 49:-1 50:-0.971288 51:-1 52:-1 53:-1 54:-1 55:-0.99907 56:-0.998799 57:-0.992298 
65536 1:-1 2:-1 3:-0.858824 4:-1 5:-0.854 6:-1 7:-1 8:-1 9:-1 10:-0.868587 11:-1 12:-0.925543 13:-1 14:-1 15:-1 16:-1 17:-1 18:-1 19:-0.922133 20:-1 21:-1 22:-1 23:-1 24:-1 25:-1 26:-1 27:-1 28:-0.920792 29:-1 30:-1 31:-1 32:-1 33:-1 34:-1 35:-1 36:-1 37:-1 38:-1 39:-1 40:-1 41:-1 42:-1 43:-1 44:-1 45:-1 46:-0.956886 47:-1 48:-1 49:-1 50:-1 51:-1 52:-1 53:-1 54:-1 55:-0.997948 56:-0.997797 57:-0.971338 
65536 1:-1 2:-1 3:-1 4:-1 5:-1 6:-1 7:-1 8:-1 9:-1 10:-1 11:-1 12:-1 13:-1 14:-1 15:-1 16:-1 17:-1 18:-1 19:-0.7376 20:-1 21:-0.557156 22:-1 23:-1 24:-1 25:-1 26:-1 27:-1 28:-1 29:-1 30:-1 31:-1 32:-1 33:-1 34:-1 35:-1 36:-1 37:-1 38:-1 39:-1 40:-1 41:-1 42:-1 43:-1 44:-1 45:-1 46:-1 47:-1 48:-1 49:-1 50:-1 51:-1 52:-0.956615 53:-1 54:-1 55:-0.99835 56:-0.998398 57:-0.994823 
65536 1:-1 2:-1 3:-0.843137 4:-1 5:-0.92 6:-1 7:-0.889959 8:-1 9:-1 10:-1 11:-1 12:-1 13:-0.855856 14:-1 15:-1 16:-1 17:-1 18:-1 19:-0.7824 20:-1 21:-0.927993 22:-1 23:-1 24:-1 25:-1 26:-1 27:-1 28:-1 29:-1 30:-1 31:-1 32:-1 33:-1 34:-1 35:-1 36:-1 37:-1 38:-1 39:-1 40:-1 41:-1 42:-1 43:-1 44:-1 45:-0.962652 46:-1 47:-1 48:-1 49:-1 50:-1 51:-1 52:-0.9885 53:-1 54:-1 55:-0.998921 56:-0.997998 57:-0.985227 
65536 1:-0.881057 2:-1 3:-0.839216 4:-1 5:-1 6:-1 7:-0.964237 8:-0.976598 9:-1 10:-1 11:-1 12:-0.915202 13:-1 14:-1 15:-1 16:-1 17:-1 18:-0.909791 19:-0.9264 20:-1 21:-0.951395 22:-1 23:-1 24:-1 25:-1 26:-1 27:-1 28:-1 29:-1 30:-1 31:-1 32:-1 33:-1 34:-1 35:-1 36:-0.929779 37:-1 38:-1 39:-1 40:-1 41:-1 42:-1 43:-1 44:-1 45:-1 46:-1 47:-1 48:-1 49:-1 50:-0.972724 51:-1 52:-1 53:-1 54:-1 55:-0.999036 56:-0.996195 57:-0.981944 
65536 1:-1 2:-1 3:-1 4:-1 5:-1 6:-1 7:-1 8:-1 9:-1 10:-1 11:-1 12:-0.764219 13:-1 14:-1 15:-1 16:-1 17:-1 18:-1 19:-0.8784 20:-1 21:-1 22:-1 23:-1 24:-1 25:-1 26:-1 27:-1 28:-1 29:-1 30:-1 31:-1 32:-1 33:-1 34:-1 35:-1 36:-1 37:-1 38:-1 39:-1 40:-1 41:-1 42:-1 43:-1 44:-1 45:-1 46:-1 47:-1 48:-1 49:-1 50:-1 51:-1 52:-1 53:-1 54:-1 55:-0.99901 56:-0.999399 57:-0.99798 
1609.757521779871 1:-0.577093 2:-1 3:-0.811765 4:-1 5:-1 6:-0.673469 7:-1 8:-1 9:-0.81749 10:-1 11:-0.632184 12:-1 13:-1 14:-1 15:0.00699301 16:-0.905512 17:-0.865546 18:-0.469747 19:-1 20:-1 21:-0.827183 22:-1 23:-1 24:-0.9232 25:-1 26:-1 27:-1 28:-1 29:-1 30:-1 31:-1 32:-1 33:-0.947195 34:-1 35:-1 36:-1 37:-1 38:-1 39:-1 40:-1 41:-1 42:-1 43:-1 44:-1 45:-1 46:-0.942515 47:-1 48:-1 49:-1 50:-0.83224 51:-1 52:-0.981705 53:-0.844411 54:-0.9883 55:-0.984458 56:-0.948338 57:-0.909596 
65536 1:-1 2:-1 3:-1 4:-1 5:-1 6:-1 7:-1 8:-1 9:-1 10:-1 11:-1 12:-1 13:-1 14:-1 15:-1 16:-1 17:-1 18:-1 19:-0.492267 20:-1 21:-1 22:-1 23:-1 24:-1 25:-1 26:-1 27:-1 28:-1 29:-1 30:-1 31:-1 32:-1 33:-1 34:-1 35:-1 36:-1 37:-1 38:-1 39:-1 40:-1 41:-1 42:-1 43:-1 44:-1 45:-1 46:-1 47:-1 48:-1 49:-1 50:-1 51:-1 52:-1 53:-1 54:-1 55:-1 56:-1 57:-0.999495 
27499.11929933344 1:-0.859031 2:-1 3:-0.686275 4:-1 5:-0.84 6:-0.891156 7:-0.955983 8:-1 9:-0.756654 10:-1 11:-0.754789 12:-0.702172 13:-0.942342 14:-1 15:-1 16:-1 17:-0.910364 18:-1 19:-0.640533 20:-1 21:-0.769577 22:-1 23:-0.941284 24:-1 25:-1 26:-1 27:-1 28:-1 29:-1 30:-1 31:-1 32:-1 33:-1 34:-1 35:-1 36:-1 37:-0.873267 38:-1 39:-1 40:-1 41:-1 42:-1 43:-1 44:-1 45:-1 46:-1 47:-1 48:-1 49:-1 50:-0.989746 51:-1 52:-0.994773 53:-0.975012 54:-1 55:-0.999239 56:-0.997197 57:-0.980051 
53619.59410752385 1:-1 2:-1 3:-1 4:-1 5:-1 6:-1 7:-0.422283 8:-1 9:-1 10:-1 11:-1 12:-0.782834 13:-1 14:-1 15:-1 16:-1 17:-1 18:-1 19:-0.550933 20:-1 21:-1 22:-1 23:-1 24:-1 25:-1 26:-1 27:-1 28:-1 29:-1 30:-1 31:-1 32:-1 33:-1 34:-1 35:-1 36:-1 37:-1 38:-1 39:-1 40:-1 41:-1 42:-1 43:-1 44:-1 45:-1 46:-1 47:-1 48:-1 49:-1 50:-1 51:-1 52:-1 53:-1 54:-1 55:-0.996922 56:-0.997197 57:-0.992298 
65536 1:-1 2:-1 3:-1 4:-1 5:-0.976 6:-1 7:-1 8:-1 9:-1 10:-1 11:-1 12:-0.795243 13:-1 14:-1 15:-1 16:-0.976378 17:-0.966387 18:-0.973597 19:-0.9872 20:-1 21:-0.978398 22:-1 23:-1 24:-1 25:-1 26:-1 27:-1 28:-0.947195 29:-0.983193 30:-0.959184 31:-1 32:-1 33:-1 34:-1 35:-1 36:-0.838752 37:-1 38:-0.94 39:-1 40:-1 41:-1 42:-0.948179 43:-1 44:-1 45:-0.988796 46:-0.955689 47:-1 48:-1 49:-1 50:-0.925144 51:-1 52:-1 53:-1 54:-1 55:-0.997502 56:-0.99199 57:-0.938005 
35244.52560444057 1:-1 2:-1 3:-0.301961 4:-1 5:-1 6:-1 7:-1 8:-1 9:-1 10:-1 11:-1 12:-0.631851 13:-1 14:-1 15:-1 16:-1 17:-1 18:-1 19:-0.810133 20:-1 21:-1 22:-1 23:-1 24:-1 25:-1 26:-1 27:-1 28:-1 29:-1 30:-1 31:-1 32:-1 33:-1 34:-1 35:-1 36:-1 37:-1 38:-1 39:-1 40:-1 41:-1 42:-1 43:-1 44:-1 45:-1 46:-1 47:-1 48:-1 49:-1 50:-1 51:-1 52:-0.858763 53:-1 54:-0.972767 55:-0.943713 56:-0.985182 57:-0.979924 
1567.462792908187 1:-1 2:-0.904762 3:-1 4:-1 5:-1 6:-1 7:-1 8:-1 9:-1 10:-0.877588 11:0.0421456 12:-1 13:-1 14:-1 15:-1 16:-1 17:-1 18:-1 19:-0.7824 20:-1 21:-0.877588 22:-1 23:-1 24:-1 25:-0.93471 26:-1 27:-1 28:-0.850385 29:-1 30:-1 31:-0.428571 32:-1 33:-1 34:-1 35:-0.932 36:-1 37:-0.461386 38:-1 39:-1 40:-1 41:-1 42:-1 43:-1 44:-1 45:-1 46:-1 47:-1 48:-1 49:-1 50:-1 51:-0.866763 52:-1 53:-1 54:-1 55:-0.994869 56:-0.994193 57:-0.966793 
65536 1:-1 2:-1 3:-0.247059 4:-1 5:-1 6:-1 7:-1 8:-1 9:-1 10:-1 11:-1 12:-1 13:-1 14:-1 15:-1 16:-1 17:-1 18:-0.577558 19:-0.7952 20:-1 21:-0.654365 22:-1 23:-1 24:-1 25:-1 26:-1 27:-1 28:-1 29:-1 30:-1 31:-1 32:-1 33:-1 34:-1 35:-1 36:-1 37:-1 38:-1 39:-1 40:-1 41:-1 42:-1 43:-1 44:-1 45:-1 46:-1 47:-1 48:-1 49:-1 50:-1 51:-1 52:-1 53:-1 54:-1 55:-0.999245 56:-0.998999 57:-0.99798 
52914.48060301707 1:-1 2:-1 3:-0.788235 4:-1 5:-0.784 6:-1 7:-1 8:-1 9:-1 10:-1 11:-1 12:-0.962771 13:-0.675676 14:-1 15:-0.874126 16:-1 17:-0.89916 18:-0.920792 19:-0.6736 20:-1 21:-0.837984 22:-1 23:-1 24:-1 25:-1 26:-1 27:-1 28:-1 29:-1 30:-1 31:-1 32:-1 33:-1 34:-1 35:-1 36:-1 37:-1 38:-1 39:-1 40:-1 41:-1 42:-1 43:-1 44:-1 45:-1 46:-1 47:-1 48:-1 49:-0.986773 50:-0.963495 51:-1 52:-0.95651 53:-1 54:-1 55:-0.999323 56:-0.998999 57:-0.98851 
65536 1:-1 2:-1 3:-0.470588 4:-1 5:-0.866 6:-1 7:-1 8:-1 9:-1 10:-0.879388 11:-1 12:-1 13:-1 14:-1 15:-1 16:-1 17:-1 18:-0.852585 19:-0.928533 20:-1 21:-1 22:-1 23:-1 24:-1 25:-1 26:-1 27:-1 28:-1 29:-1 30:-1 31:-1 32:-1 33:-1 34:-1 35:-1 36:-1 37:-1 38:-1 39:-1 40:-1 41:-1 42:-1 43:-1 44:-1 45:-0.937442 46:-1 47:-1 48:-1 49:-1 50:-1 51:-1 52:-0.916157 53:-0.962019 54:-1 55:-0.997227 56:-0.996195 57:-0.982576 
7590.122836795164 1:-1 2:-1 3:-1 4:-1 5:-0.58 6:-1 7:-0.711142 8:-1 9:-1 10:-1 11:-1 12:-1 13:-1 14:-1 15:-1 16:-1 17:-1 18:-1 19:-1 20:-1 21:-1 22:-1 23:-1 24:-1 25:-1 26:-1 27:-1 28:-1 29:-1 30:-1 31:-1 32:-1 33:-1 34:-1 35:-1 36:-0.726918 37:-1 38:-1 39:-1 40:-1 41:-1 42:-1 43:-1 44:-1 45:-1 46:-1 47:-1 48:-1 49:-1 50:-1 51:-1 52:-1 53:-1 54:-1 55:-0.993645 56:-0.993392 57:-0.98649 
27341.11873307998 1:-1 2:-1 3:-1 4:-1 5:-1 6:-1 7:-1 8:-0.879388 9:-1 10:-0.879388 11:-1 12:-1 13:-1 14:-1 15:-1 16:-1 17:-1 18:-1 19:-1 20:-1 21:-1 22:-1 23:-1 24:-1 25:-1 26:-1 27:-1 28:-1 29:-1 30:-1 31:-1 32:-1 33:-1 34:-1 35:-1 36:-1 37:-0.469307 38:-1 39:-1 40:-1 41:-1 42:-1 43:-1 44:-1 45:-1 46:-1 47:-1 48:-1 49:-0.922463 50:-0.895201 51:-0.938783 52:-0.946579 53:-1 54:-1 55:-0.993433 56:-0.994794 57:-0.972727 
61620.0800383004 1:-1 2:-0.823529 3:-1 4:-1 5:-1 6:-1 7:-1 8:-1 9:-1 10:-1 11:-1 12:-1 13:-1 14:-1 15:-1 16:-0.751969 17:-1 18:-1 19:-0.8656 20:-1 21:-1 22:-1 23:-1 24:-1 25:-1 26:-1 27:-1 28:-1 29:-1 30:-1 31:-1 32:-1 33:-1 34:-1 35:-1 36:-1 37:-1 38:-1 39:-1 40:-1 41:-1 42:-1 43:-1 44:-1 45:-1 46:-1 47:-1 48:-1 49:-1 50:-1 51:-1 52:-0.95651 53:-1 54:-1 55:-0.984049 56:-0.99179 57:-0.982828 
3019.116528227197 1:-0.352423 2:-1 3:-1 4:-1 5:-1 6:-1 7:-1 8:-1 9:-1 10:-0.735374 11:-1 12:-1 13:-0.47027 14:-1 15:-1 16:0.44685 17:-1 18:-1 19:-0.6864 20:-1 21:-0.735374 22:-1 23:-1 24:-0.2944 25:-1 26:-1 27:-1 28:-1 29:-1 30:-1 31:-1 32:-1 33:-1 34:-1 35:-1 36:-1 37:-1 38:-1 39:-1 40:-1 41:-1 42:-1 43:-1 44:-1 45:-1 46:-1 47:-1 48:-1 49:-1 50:-1 51:-1 52:-0.867022 53:-0.915376 54:-1 55:-0.990388 56:-0.987585 57:-0.986616 
11175.18761636367 1:-1 2:-1 3:-0.8 4:-1 5:-0.794 6:-0.826531 7:-1 8:-1 9:-1 10:-1 11:-0.609195 12:-0.78697 13:-1 14:-0.898 15:-1 16:-1 17:-0.857143 18:-0.887789 19:-0.723733 20:-1 21:-0.0675068 22:-1 23:-1 24:-1 25:-1 26:-1 27:-1 28:-1 29:-1 30:-1 31:-1 32:-1 33:-1 34:-1 35:-1 36:-1 37:-1 38:-1 39:-1 40:-1 41:-1 42:-1 43:-1 44:-1 45:-1 46:-1 47:-1 48:-1 49:-1 50:-0.984824 51:-1 52:-0.961006 53:-0.950358 54:-1 55:-0.988683 56:-0.985983 57:-0.972727 
65536 1:-1 2:-1 3:-1 4:-1 5:-1 6:-1 7:-1 8:-1 9:-1 10:-1 11:-1 12:-1 13:-1 14:-1 15:-1 16:-0.840551 17:-1 18:-1 19:-0.563733 20:-1 21:-1 22:-1 23:-1 24:-1 25:-1 26:-1 27:-1 28:-1 29:-1 30:-1 31:-1 32:-1 33:-1 34:-1 35:-1 36:-1 37:-1 38:-1 39:-1 40:-1 41:-1 42:-1 43:-1 44:-1 45:-1 46:-1 47:-1 48:-1 49:-1 50:-0.963905 51:-1 52:-0.926193 53:-1 54:-1 55:-0.986544 56:-0.989187 57:-0.982071 
452.0510466487677 1:-1 2:-1 3:-0.74902 4:-1 5:-1 6:-0.782313 7:-1 8:-1 9:-1 10:-1 11:-1 12:-1 13:-1 14:-1 15:-1 16:-0.874016 17:-1 18:-1 19:-0.723733 20:-1 21:-1 22:-1 23:-0.765138 24:-1 25:-1 26:-1 27:-1 28:-1 29:-1 30:-1 31:-1 32:-1 33:-1 34:-1 35:-1 36:-1 37:-0.746535 38:-1 39:-1 40:-1 41:-1 42:-1 43:-1 44:-1 45:-1 46:-1 47:-1 48:-1 49:-0.957127 50:-0.961239 51:-0.795463 52:-0.930793 53:-1 54:-1 55:-0.983535 56:-0.973969 57:-0.963258 
65536 1:-1 2:-1 3:-0.529412 4:-1 5:-1 6:-1 7:-1 8:-1 9:-1 10:-1 11:-1 12:-0.503619 13:-1 14:-1 15:-1 16:-1 17:-1 18:-1 19:-0.744 20:-1 21:-0.134113 22:-1 23:-1 24:-1 25:-1 26:-1 27:-1 28:-1 29:-1 30:-1 31:-1 32:-1 33:-1 34:-1 35:-1 36:-1 37:-1 38:-1 39:-1 40:-1 41:-1 42:-1 43:-1 44:-1 45:-1 46:-1 47:-1 48:-1 49:-1 50:-1 51:-1 52:-1 53:-1 54:-1 55:-0.994553 56:-0.996996 57:-0.991035 
65536 1:-0.969163 2:-1 3:-0.941176 4:-1 5:-0.986 6:-0.94898 7:-1 8:-0.987399 9:-0.973384 10:-1 11:-1 12:-0.90486 13:-1 14:-1 15:-1 16:-1 17:-0.957983 18:-1 19:-0.984 20:-1 21:-0.987399 22:-1 23:-1 24:-0.9888 25:-1 26:-1 27:-1 28:-1 29:-1 30:-1 31:-1 32:-1 33:-1 34:-1 35:-1 36:-1 37:-0.940594 38:-1 39:-1 40:-0.970588 41:-1 42:-1 43:-0.960784 44:-1 45:-1 46:-1 47:-1 48:-1 49:-0.994983 50:-0.990361 51:-1 52:-1 53:-0.992337 54:-1 55:-0.999522 56:-0.998198 57:-0.966793 
65536 1:-1 2:-1 3:-1 4:-1 5:-1 6:-1 7:-1 8:-1 9:-1 10:-0.863186 11:-1 12:-0.52637 13:-1 14:-1 15:-1 16:-1 17:-1 18:-1 19:-0.674667 20:-1 21:-1 22:-1 23:-1 24:-1 25:-1 26:-1 27:-1 28:-1 29:-1 30:-1 31:-1 32:-1 33:-1 34:-1 35:-1 36:-1 37:-1 38:-1 39:-1 40:-1 41:-1 42:-1 43:-1 44:-1 45:-0.929038 46:-0.817964 47:-1 48:-1 49:-1 50:-1 51:-1 52:-1 53:-1 54:-1 55:-0.999608 56:-0.999399 57:-0.994444 
65536 1:-1 2:-1 3:-1 4:-1 5:-1 6:-1 7:-1 8:-1 9:-1 10:-1 11:-1 12:-1 13:-1 14:-1 15:-1 16:-1 17:-1 18:-1 19:-1 20:-1 21:-1 22:-1 23:-1 24:-1 25:-1 26:-1 27:-1 28:-1 29:-1 30:-1 31:-1 32:-1 33:-1 34:-1 35:-1 36:-1 37:-1 38:-1 39:-1 40:-1 41:-1 42:-1 43:-1 44:-1 45:-1 46:-1 47:-1 48:-1 49:-1 50:-0.923093 51:-0.621894 52:-0.976478 53:-1 54:-1 55:-0.992908 56:-0.992391 57:-0.973485 
65536 1:-1 2:-1 3:-1 4:-1 5:-1 6:-1 7:-1 8:-1 9:-1 10:-1 11:-1 12:-1 13:-1 14:-1 15:-1 16:-1 17:-1 18:-1 19:-1 20:-1 21:-1 22:-1 23:-1 24:-1 25:-1 26:-1 27:-1 28:-1 29:-1 30:-1 31:-1 32:-1 33:-1 34:-1 35:-1 36:-1 37:-1 38:-1 39:-1 40:-1 41:-1 42:-1 43:-1 44:-1 45:-1 46:-1 47:-1 48:-1 49:-1 50:-1 51:-1 52:-1 53:-1 54:-1 55:-0.999517 56:-0.999399 57:-0.997727 
26716.20258499147 1:-0.947137 2:-0.983193 3:-0.905882 4:-1 5:-0.732 6:-0.959184 7:-1 8:-0.978398 9:-1 10:-1 11:-0.724138 12:-0.824199 13:-1 14:-1 15:-1 16:-0.952756 17:-0.932773 18:-1 19:-0.751467 20:-1 21:-0.868587 22:-1 23:-1 24:-1 25:-1 26:-1 27:-1 28:-1 29:-1 30:-1 31:-1 32:-1 33:-1 34:-1 35:-1 36:-0.745124 37:-1 38:-1 39:-1 40:-0.94958 41:-1 42:-1 43:-1 44:-1 45:-0.988796 46:-1 47:-1 48:-1 49:-0.971266 50:-0.995693 51:-1 52:-0.995609 53:-0.986007 54:-1 55:-0.997547 56:-0.986384 57:-0.968056 
4077.47172488798 1:-0.9163 2:-1 3:-0.85098 4:-1 5:-1 6:-0.935374 7:-1 8:-1 9:-1 10:-1 11:-0.854406 12:-0.960703 13:-1 14:-1 15:-1 16:-0.925197 17:-1 18:-0.958196 19:-0.8784 20:-1 21:-0.931593 22:-1 23:-1 24:-1 25:-1 26:-1 27:-1 28:-1 29:-1 30:-1 31:-1 32:-1 33:-1 34:-1 35:-1 36:-1 37:-1 38:-1 39:-1 40:-1 41:-1 42:-1 43:-1 44:-1 45:-1 46:-1 47:-1 48:-1 49:-0.995439 50:-0.997949 51:-1 52:-1 53:-1 54:-0.999697 55:-0.997489 56:-0.995995 57:1 
919.7737188219862 1:-0.603524 2:-1 3:-1 4:-1 5:-1 6:-1 7:-0.752407 8:-1 9:-1 10:-1 11:-1 12:-1 13:-1 14:-1 15:-1 16:-1 17:-0.747899 18:-0.80198 19:-0.806933 20:-1 21:-0.510351 22:-1 23:-1 24:-0.856 25:-1 26:-1 27:-1 28:-1 29:-1 30:-1 31:-1 32:-1 33:-1 34:-1 35:-1 36:-1 37:-1 38:-1 39:-1 40:-1 41:-1 42:-1 43:-1 44:-1 45:-1 46:-1 47:-1 48:-1 49:-1 50:-1 51:-1 52:-0.943861 53:-1 54:-1 55:-0.996764 56:-0.996396 57:-0.992045 
47059.54007420241 1:-1 2:-1 3:-0.756863 4:-1 5:-0.752 6:-0.789116 7:-1 8:-1 9:-1 10:-1 11:-1 12:-1 13:-1 14:-1 15:-1 16:-0.938976 17:-1 18:-1 19:-0.735467 20:-1 21:-0.832583 22:-1 23:-0.886239 24:-1 25:-1 26:-1 27:-1 28:-1 29:-1 30:-1 31:-1 32:-1 33:-1 34:-1 35:-1 36:-1 37:-0.877228 38:-1 39:-1 40:-1 41:-1 42:-1 43:-1 44:-1 45:-1 46:-1 47:-1 48:-1 49:-1 50:-0.982363 51:-1 52:-0.995505 53:-1 54:-1 55:-0.998655 56:-0.997397 57:-0.980556 
3834.140833099491 1:-1 2:-0.984594 3:-0.909804 4:-1 5:-0.884 6:-0.884354 7:-0.969739 8:-1 9:-0.870722 10:-1 11:-0.823755 12:-0.809721 13:-0.834234 14:-1 15:-1 16:-0.909449 17:-0.935574 18:-0.925193 19:-0.938133 20:-1 21:-0.89559 22:-1 23:-0.959633 24:-1 25:-1 26:-1 27:-1 28:-1 29:-1 30:-1 31:-1 32:-1 33:-1 34:-1 35:-1 36:-1 37:-1 38:-1 39:-1 40:-1 41:-1 42:-1 43:-0.938375 44:-1 45:-1 46:-1 47:-1 48:-1 49:-0.965792 50:-0.992412 51:-1 52:-0.966337 53:-0.968682 54:-0.998184 55:-0.997138 56:-0.990589 57:-0.95101 
65536 1:-1 2:-1 3:-1 4:-1 5:-1 6:-1 7:-1 8:-1 9:-1 10:-1 11:-1 12:-1 13:-1 14:-1 15:-1 16:-1 17:-1 18:-1 19:-0.492267 20:-1 21:-1 22:-1 23:-1 24:-1 25:-1 26:-1 27:-1 28:-1 29:-1 30:-1 31:-1 32:-1 33:-1 34:-1 35:-1 36:-1 37:-1 38:-1 39:-1 40:-1 41:-1 42:-1 43:-1 44:-1 45:-1 46:-1 47:-1 48:-1 49:-1 50:-1 51:-1 52:-1 53:-1 54:-1 55:-1 56:-1 57:-0.999747 
30436.48289523881 1:-1 2:-1 3:-1 4:-1 5:-0.524 6:-1 7:-1 8:-1 9:-1 10:-1 11:-1 12:-1 13:-1 14:-1 15:-1 16:-1 17:-1 18:-1 19:-0.492267 20:-1 21:-1 22:-1 23:-1 24:-1 25:-1 26:-1 27:-1 28:-1 29:-1 30:-1 31:-1 32:-1 33:-1 34:-1 35:-1 36:-1 37:-1 38:-1 39:-1 40:-1 41:-1 42:-1 43:-1 44:-1 45:-1 46:-1 47:-1 48:-1 49:-1 50:-1 51:-1 52:-1 53:-1 54:-1 55:-0.998184 56:-0.997998 57:-0.997601 
65536 1:-1 2:-1 3:-1 4:-1 5:-1 6:-1 7:-1 8:-1 9:-1 10:-1 11:-1 12:-1 13:-1 14:-1 15:-1 16:-0.785433 17:-0.694678 18:-1 19:-0.649067 20:-1 21:-0.605761 22:-1 23:-1 24:-1 25:-1 26:-1 27:-1 28:-1 29:-1 30:-1 31:-1 32:-1 33:-1 34:-1 35:-1 36:-1 37:-1 38:-1 39:-1 40:-1 41:-1 42:-1 43:-1 44:-1 45:-0.898226 46:-1 47:-1 48:-1 49:-1 50:-0.923913 51:-1 52:-0.961215 53:-1 54:-1 55:-0.996194 56:-0.994594 57:-0.988005 
61964.07489203448 1:-0.969163 2:-0.997199 3:-0.941176 4:-1 5:-0.95 6:-0.931973 7:-1 8:-0.9964 9:-0.942966 10:-1 11:-1 12:-0.948294 13:-0.90991 14:-0.986 15:-1 16:-0.990157 17:-0.938375 18:-1 19:-0.994667 20:-1 21:-0.9964 22:-1 23:-0.86422 24:-0.9968 25:-1 26:-1 27:-1 28:-1 29:-0.997199 30:-1 31:-1 32:-1 33:-1 34:-1 35:-1 36:-0.986996 37:-0.881188 38:-0.99 39:-1 40:-0.991597 41:-1 42:-1 43:-0.988796 44:-1 45:-0.998133 46:-1 47:-1 48:-1 49:-0.994983 50:-0.995488 51:-1 52:-1 53:-0.99267 54:-1 55:-0.999232 56:-0.996195 57:-0.878283 
1744.627795063463 1:-1 2:-0.896359 3:-0.27451 4:-1 5:-1 6:-0.87415 7:-1 8:-0.933393 9:-0.718631 10:-0.80018 11:-0.716475 12:-0.846949 13:-1 14:-0.926 15:-1 16:-0.927165 17:-0.896359 18:-0.918592 19:-0.842133 20:-1 21:-0.531953 22:-1 23:-1 24:-1 25:-1 26:-1 27:-1 28:-1 29:-1 30:-1 31:-1 32:-1 33:-1 34:-1 35:-1 36:-1 37:-0.560396 38:-1 39:-1 40:-1 41:-1 42:-1 43:-1 44:-1 45:-0.965453 46:-1 47:-1 48:-1 49:-1 50:-0.931091 51:-1 52:-0.873399 53:-0.843078 54:-0.993242 55:-0.968407 56:-0.921506 57:-0.907197 
58592.02525831277 1:-1 2:-1 3:-1 4:-1 5:-0.69 6:-1 7:-1 8:-1 9:-1 10:-0.944194 11:-1 12:-0.935884 13:-1 14:-1 15:-1 16:-0.938976 17:-0.826331 18:-1 19:-0.7024 20:-1 21:-0.888389 22:-1 23:-1 24:-1 25:-1 26:-1 27:-1 28:-1 29:-1 30:-1 31:-1 32:-1 33:-1 34:-1 35:-1 36:-1 37:-1 38:-1 39:-1 40:-1 41:-1 42:-1 43:-1 44:-1 45:-0.913165 46:-1 47:-1 48:-1 49:-1 50:-0.990156 51:-1 52:-1 53:-1 54:-1 55:-0.998021 56:-0.995795 57:-0.985606 
9410.54218509298 1:-1 2:-1 3:-1 4:-1 5:-0.982 6:-1 7:-1 8:-1 9:-1 10:-0.983798 11:-1 12:-1 13:-1 14:-1 15:-1 16:-1 17:-1 18:-1 19:-1 20:-1 21:-1 22:-1 23:-1 24:-1 25:-1 26:-1 27:-1 28:-1 29:-1 30:-1 31:-1 32:-1 33:-1 34:-1 35:-1 36:-1 37:-1 38:-1 39:-1 40:-1 41:-1 42:-1 43:-1 44:-1 45:-1 46:-1 47:-1 48:-1 49:-1 50:-0.993437 51:-1 52:-0.998327 53:-1 54:-1 55:-0.957558 56:-0.973168 57:-0.581566 
32349.30189554194 1:-1 2:-1 3:-0.721569 4:-1 5:-0.858 6:-1 7:-1 8:-1 9:-1 10:-1 11:-1 12:-1 13:-1 14:-1 15:-1 16:-0.860236 17:-1 18:-0.685369 19:-0.770667 20:-1 21:-0.612961 22:-1 23:-1 24:-1 25:-1 26:-1 27:-1 28:-1 29:-1 30:-1 31:-1 32:-1 33:-1 34:-1 35:-1 36:-1 37:-1 38:-1 39:-1 40:-1 41:-1 42:-1 43:-1 44:-1 45:-1 46:-1 47:-1 48:-1 49:-1 50:-1 51:-0.815628 52:-0.986619 53:-1 54:-1 55:-0.998586 56:-0.997998 57:-0.986869 
64531.63077382611 1:-1 2:-1 3:-1 4:-1 5:-1 6:-1 7:-1 8:-1 9:-1 10:-1 11:-1 12:-1 13:-1 14:-1 15:-1 16:-1 17:-1 18:-1 19:-1 20:-1 21:-1 22:-1 23:-1 24:-1 25:-1 26:-1 27:-1 28:-1 29:-1 30:-1 31:-1 32:-1 33:-1 34:-1 35:-1 36:-1 37:-1 38:-1 39:-1 40:-1 41:-1 42:-1 43:-1 44:-1 45:-1 46:-1 47:-1 48:-1 49:-1 50:-1 51:-1 52:-0.477288 53:-1 54:-1 55:-1 56:-1 57:-0.999874 
65536 1:-1 2:-1 3:-1 4:-1 5:-1 6:-1 7:-1 8:-1 9:-1 10:-1 11:-1 12:-1 13:-1 14:-1 15:-1 16:-1 17:-1 18:-1 19:-1 20:-1 21:-1 22:-1 23:-1 24:-1 25:-1 26:-1 27:-1 28:-1 29:-1 30:-1 31:-1 32:-1 33:-1 34:-1 35:-1 36:-1 37:-1 38:-1 39:-1 40:-1 41:-1 42:-1 43:-1 44:-1 45:-1 46:-1 47:-1 48:-1 49:-1 50:-0.88146 51:-1 52:-1 53:-1 54:-1 55:-0.994916 56:-0.997197 57:-0.997727 
31569.07057422703 1:-1 2:-0.997199 3:-0.980392 4:-1 5:-0.996 6:-1 7:-1 8:-0.990999 9:-1 10:-0.936994 11:-1 12:-0.995863 13:-1 14:-1 15:-1 16:-0.990157 17:-0.971989 18:-0.916392 19:-0.992533 20:-0.936709 21:-0.969397 22:-1 23:-1 24:-1 25:-0.99808 26:-1 27:-1 28:-1 29:-1 30:-1 31:-1 32:-1 33:-1 34:-1 35:-1 36:-1 37:-1 38:-1 39:-1 40:-1 41:-1 42:-1 43:-1 44:-1 45:-1 46:-1 47:-1 48:-1 49:-1 50:-0.99918 51:-1 52:-0.988814 53:-0.994336 54:-0.998285 55:-0.994695 56:-0.902283 57:-0.587121 
65536 1:-1 2:-0.908964 3:-0.615686 4:-1 5:-0.936 6:-1 7:-1 8:-1 9:-1 10:-1 11:-1 12:-0.865564 13:-1 14:-1 15:-1 16:-0.937008 17:-1 18:-0.713971 19:-0.7216 20:-1 21:-0.765977 22:-1 23:-1 24:-1 25:-1 26:-1 27:-1 28:-1 29:-1 30:-1 31:-1 32:-1 33:-1 34:-1 35:-1 36:-1 37:-1 38:-1 39:-1 40:-1 41:-1 42:-1 43:-1 44:-1 45:-0.970121 46:-1 47:-1 48:-1 49:-1 50:-0.98913 51:-1 52:-0.950133 53:-1 54:-1 55:-0.994057 56:-0.975971 57:-0.960732 
48403.36051351659 1:-1 2:-1 3:-0.690196 4:-1 5:-0.948 6:-1 7:-0.928473 8:-0.953195 9:-1 10:-1 11:-1 12:-0.729059 13:-1 14:-1 15:-1 16:-1 17:-1 18:-0.942794 19:-0.831467 20:-1 21:-0.906391 22:-1 23:-1 24:-1 25:-1 26:-1 27:-1 28:-1 29:-1 30:-1 31:-1 32:-1 33:-1 34:-1 35:-1 36:-0.864759 37:-0.89703 38:-1 39:-1 40:-0.890756 41:-1 42:-1 43:-1 44:-1 45:-1 46:-1 47:-1 48:-0.896 49:-0.982668 50:-0.992207 51:-1 52:-0.99195 53:-1 54:-1 55:-0.998547 56:-0.994393 57:-0.978535 
44739.46690186013 1:-1 2:-1 3:-1 4:-1 5:-1 6:-1 7:-1 8:-1 9:-1 10:-0.785779 11:-1 12:-1 13:-1 14:-1 15:-1 16:-0.765748 17:-1 18:-1 19:-0.6192 20:-1 21:-0.357336 22:-1 23:-1 24:-1 25:-0.885742 26:-0.857143 27:-1 28:-1 29:-1 30:-1 31:-1 32:-1 33:-1 34:-1 35:-1 36:-1 37:-1 38:-1 39:-1 40:-1 41:-1 42:-1 43:-1 44:-1 45:-0.888889 46:-1 47:-1 48:-1 49:-1 50:-1 51:-1 52:-0.978673 53:-1 54:-1 55:-0.986135 56:-0.99199 57:-0.988131 
19566.84386857252 1:-1 2:-1 3:-1 4:-1 5:-1 6:-1 7:-1 8:-1 9:-1 10:-1 11:-1 12:-1 13:-1 14:-1 15:-0.797203 16:-0.942913 17:-1 18:-0.936194 19:-0.809067 20:-1 21:-0.893789 22:-1 23:-0.893578 24:-1 25:-1 26:-1 27:-1 28:-1 29:-1 30:-1 31:-1 32:-1 33:-0.968097 34:-1 35:-1 36:-1 37:-1 38:-1 39:-1 40:-1 41:-1 42:-1 43:-0.501401 44:-1 45:-1 46:-1 47:-1 48:-1 49:-1 50:-0.949139 51:-1 52:-1 53:-0.983675 54:-1 55:-0.997331 56:-0.994193 57:-0.978914 
65536 1:-1 2:-0.934174 3:-1 4:-1 5:-0.906 6:-1 7:-1 8:-1 9:-1 10:-1 11:-0.639847 12:-1 13:-1 14:-1 15:-1 16:-0.90748 17:-1 18:-0.790979 19:-0.797333 20:-1 21:-0.744374 22:-1 23:-1 24:-1 25:-1 26:-1 27:-1 28:-1 29:-1 30:-1 31:-1 32:-1 33:-1 34:-1 35:-1 36:-1 37:-1 38:-1 39:-1 40:-1 41:-1 42:-1 43:-1 44:-1 45:-1 46:-1 47:-1 48:-1 49:-1 50:-0.988515 51:-1 52:-1 53:-1 54:-1 55:-0.988779 56:-0.963757 57:-0.954798 
65536 1:-1 2:-1 3:-1 4:-1 5:-1 6:-1 7:-1 8:-1 9:-1 10:-1 11:-1 12:-1 13:-1 14:-1 15:-1 16:-1 17:-1 18:-1 19:-0.6448 20:-1 21:-1 22:-1 23:-1 24:-1 25:-1 26:-1 27:-1 28:-1 29:-1 30:-1 31:-1 32:-1 33:-1 34:-1 35:-1 36:-1 37:-1 38:-1 39:-1 40:-1 41:-1 42:-1 43:-1 44:-1 45:-1 46:-1 47:-1 48:-1 49:-1 50:-1 51:-1 52:-0.88699 53:-1 54:-1 55:-0.99764 56:-0.998398 57:-0.997222 
65536 1:-0.964758 2:-1 3:-0.968627 4:-1 5:-0.968 6:-1 7:-1 8:-1 9:-1 10:-1 11:-1 12:-0.95243 13:-1 14:-1 15:-1 16:-0.984252 17:-0.935574 18:-1 19:-0.957333 20:-0.949367 21:-0.958596 22:-1 23:-1 24:-1 25:-1 26:-1 27:-1 28:-1 29:-1 30:-1 31:-1 32:-1 33:-1 34:-1 35:-1 36:-1 37:-0.968317 38:-1 39:-1 40:-1 41:-1 42:-1 43:-1 44:-0.980792 45:-1 46:-1 47:-1 48:-1 49:-1 50:-0.95324 51:-1 52:-0.957556 53:-0.98734 54:-1 55:-0.996712 56:-0.986784 57:-0.841793 
65536 1:-1 2:-1 3:-0.819608 4:-1 5:-0.908 6:-1 7:-1 8:-1 9:-1 10:-1 11:-1 12:-1 13:-1 14:-1 15:-1 16:-0.909449 17:-1 18:-1 19:-0.701333 20:-1 21:-0.832583 22:-1 23:-1 24:-1 25:-1 26:-1 27:-1 28:-1 29:-1 30:-1 31:-1 32:-1 33:-1 34:-1 35:-1 36:-1 37:-1 38:-1 39:-1 40:-1 41:-1 42:-1 43:-1 44:-1 45:-0.957049 46:-1 47:-1 48:-1 49:-1 50:-0.983183 51:-1 52:-0.930688 53:-1 54:-1 55:-0.999223 56:-0.996195 57:-0.984975 
16587.32056241339 1:-1 2:-0.971989 3:-0.282353 4:-1 5:-0.838 6:-0.931973 7:-0.832187 8:-0.927993 9:-1 10:-1 11:-0.0651341 12:-0.791107 13:-0.927928 14:-1 15:-1 16:-0.96063 17:-0.887955 18:-0.955996 19:-0.8048 20:-1 21:-0.780378 22:-1 23:-1 24:-1 25:-1 26:-1 27:-1 28:-1 29:-1 30:-1 31:-1 32:-1 33:-1 34:-1 35:-1 36:-0.947984 37:-1 38:-1 39:-1 40:-1 41:-1 42:-1 43:-1 44:-1 45:-1 46:-1 47:-1 48:-1 49:-1 50:-1 51:-1 52:-0.871204 53:-1 54:-1 55:-0.994264 56:-0.971766 57:-0.963889 
7232.126054552196 1:-1 2:-1 3:-1 4:-1 5:-1 6:-1 7:-1 8:-1 9:-1 10:-1 11:-1 12:-1 13:-1 14:-1 15:-1 16:-0.793307 17:-1 18:-1 19:-1 20:-1 21:-0.621962 22:-1 23:-1 24:-1 25:-1 26:-1 27:-1 28:-1 29:-1 30:-1 31:-1 32:-1 33:-1 34:-1 35:-1 36:-1 37:-1 38:-1 39:-1 40:-1 41:-1 42:-1 43:-1 44:-0.87395 45:-1 46:-1 47:-1 48:-1 49:-1 50:-1 51:-1 52:-0.811196 53:-1 54:-1 55:-0.999468 56:-0.999199 57:-0.990657 
17380.23120778625 1:-1 2:-0.847339 3:-1 4:-1 5:-1 6:-1 7:-1 8:-0.80378 9:-1 10:-1 11:-1 12:-1 13:-1 14:-1 15:-1 16:-1 17:-1 18:-1 19:-1 20:-1 21:-0.80378 22:-1 23:-1 24:-1 25:-1 26:-1 27:-1 28:-1 29:-1 30:-1 31:-1 32:-1 33:-1 34:-1 35:-1 36:-1 37:-0.568317 38:-1 39:-1 40:-1 41:-1 42:-1 43:-1 44:-1 45:-0.898226 46:-1 47:-1 48:-1 49:-0.921095 50:-0.89356 51:-1 52:-1 53:-0.769449 54:-1 55:-0.992844 56:-0.995194 57:-0.98952 
65536 1:-1 2:-1 3:-1 4:-1 5:-1 6:-1 7:-1 8:-1 9:-1 10:-1 11:-1 12:-1 13:-1 14:-1 15:-1 16:-1 17:-1 18:-1 19:-1 20:-1 21:-1 22:-1 23:-1 24:-1 25:-0.802208 26:-1 27:-1 28:-1 29:-1 30:-1 31:-1 32:-1 33:-0.886689 34:-1 35:-1 36:-1 37:-1 38:-1 39:-1 40:-1 41:-1 42:-1 43:-1 44:-1 45:-1 46:-1 47:-1 48:-1 49:-1 50:-0.929861 51:-1 52:-1 53:-1 54:-1 55:-0.99779 56:-0.998198 57:-0.993687 
11566.81285192122 1:-0.770925 2:-1 3:-0.0666667 4:-1 5:-0.948 6:-1 7:-0.928473 8:-1 9:-0.802281 10:-1 11:-0.800766 12:-1 13:-1 14:-1 15:-1 16:-0.844488 17:-1 18:-1 19:-0.8592 20:-1 21:-0.810981 22:-1 23:-1 24:-0.9168 25:-1 26:-1 27:-1 28:-1 29:-1 30:-1 31:-1 32:-1 33:-0.971397 34:-1 35:-1 36:-0.93238 37:-0.89703 38:-1 39:-0.893333 40:-1 41:-1 42:-1 43:-1 44:-1 45:-1 46:-1 47:-1 48:-1 49:-1 50:-0.865463 51:-1 52:-0.967592 53:-1 54:-1 55:-0.99174 56:-0.985983 57:-0.928662 
61195.6377687907 1:-1 2:-0.894958 3:-0.901961 4:-1 5:-1 6:-1 7:-1 8:-0.909991 9:-1 10:-0.909991 11:-0.808429 12:-0.844881 13:-1 14:-1 15:-1 16:-0.704724 17:-1 18:-0.669967 19:-0.5456 20:-1 21:-0.188119 22:-1 23:-1 24:-1 25:-1 26:-1 27:-1 28:-1 29:-1 30:-1 31:-1 32:-1 33:-1 34:-1 35:-1 36:-1 37:-1 38:-1 39:-1 40:-1 41:-1 42:-1 43:-1 44:-1 45:-1 46:-1 47:-1 48:-1 49:-0.979475 50:-0.963084 51:-1 52:-1 53:-1 54:-1 55:-0.999958 56:-0.9996 57:-0.989268 
885.0396979925106 1:-1 2:-1 3:-0.392157 4:-1 5:-1 6:-0.738095 7:-1 8:-0.931593 9:-1 10:-1 11:-0.708812 12:-0.760083 13:-1 14:-1 15:-1 16:-0.925197 17:-1 18:-0.744774 19:-0.794133 20:-1 21:-0.931593 22:-1 23:-0.574312 24:-0.9392 25:-1 26:-1 27:-1 28:-1 29:-1 30:-1 31:-1 32:-1 33:-1 34:-1 35:-1 36:-1 37:-1 38:-1 39:-1 40:-1 41:-1 42:-1 43:-1 44:-1 45:-1 46:-1 47:-1 48:-1 49:-1 50:-0.987695 51:-1 52:-0.93717 53:-0.96002 54:-1 55:-0.996975 56:-0.995795 57:-0.979924 
11223.8045545246 1:-1 2:-1 3:-0.509804 4:-1 5:-0.5 6:-1 7:-1 8:-1 9:-1 10:-1 11:-1 12:-1 13:-1 14:-1 15:-1 16:-0.753937 17:-1 18:-1 19:-0.466667 20:-1 21:-1 22:-1 23:-1 24:-1 25:-1 26:-1 27:-1 28:-1 29:-1 30:-1 31:-1 32:-1 33:-1 34:-1 35:-1 36:-1 37:-1 38:-1 39:-0.74359 40:-1 41:-1 42:-1 43:-1 44:-1 45:-1 46:-1 47:-1 48:-1 49:-1 50:-1 51:-1 52:-1 53:-1 54:-1 55:-0.999637 56:-0.999399 57:-0.995581 
11001.77079831436 1:-1 2:-1 3:-1 4:-1 5:-1 6:-1 7:-1 8:-1 9:-1 10:-1 11:-1 12:-1 13:-1 14:-1 15:-1 16:-1 17:-1 18:-1 19:-1 20:-1 21:-0.308731 22:-1 23:-1 24:-1 25:-1 26:-1 27:-1 28:-1 29:-1 30:-1 31:-1 32:-1 33:-1 34:-1 35:-1 36:-1 37:-1 38:-1 39:-1 40:-1 41:-1 42:-1 43:-1 44:-1 45:-1 46:-1 47:-1 48:-1 49:-1 50:-1 51:-1 52:-1 53:-0.59387 54:-1 55:-0.99478 56:-0.997998 57:-0.996212 
65536 1:-1 2:-1 3:-1 4:-1 5:-1 6:-1 7:-1 8:-1 9:-1 10:-1 11:-1 12:-1 13:-1 14:-1 15:-1 16:-1 17:-1 18:-1 19:-1 20:-1 21:-1 22:-1 23:-1 24:-1 25:-1 26:-1 27:-1 28:-1 29:-1 30:-1 31:-1 32:-1 33:-1 34:-1 35:-1 36:-1 37:-1 38:-1 39:-1 40:-1 41:-1 42:-1 43:-1 44:-1 45:-0.865546 46:-1 47:-1 48:-1 49:-1 50:-0.959803 51:-1 52:-0.959019 53:-0.934699 54:-1 55:-0.991891 56:-0.995795 57:-0.989773 
16715.51869290875 1:-1 2:-1 3:-0.560784 4:-1 5:-0.888 6:-1 7:-1 8:-1 9:-1 10:-0.89919 11:-1 12:-1 13:-1 14:-1 15:-1 16:-0.889764 17:-1 18:-1 19:-0.76 20:-1 21:-0.79838 22:-1 23:-1 24:-1 25:-1 26:-1 27:-1 28:-1 29:-1 30:-1 31:-1 32:-1 33:-1 34:-1 35:-1 36:-1 37:-1 38:-1 39:-1 40:-1 41:-1 42:-1 43:-1 44:-1 45:-0.947712 46:-1 47:-1 48:-1 49:-1 50:-0.979286 51:-1 52:-0.936647 53:-1 54:-1 55:-0.997531 56:-0.996396 57:-0.981944 
64538.95970906492 1:-1 2:-1 3:-1 4:-1 5:-1 6:-1 7:-1 8:-1 9:-1 10:-1 11:-1 12:-1 13:-1 14:-1 15:-1 16:-1 17:-1 18:-1 19:-0.5264 20:-1 21:-1 22:-1 23:-1 24:-1 25:-1 26:-1 27:-1 28:-1 29:-1 30:-1 31:-1 32:-1 33:-1 34:-1 35:-1 36:-1 37:-1 38:-1 39:-1 40:-1 41:-1 42:-1 43:-1 44:-1 45:-1 46:-1 47:-1 48:-1 49:-1 50:-1 51:-1 52:-0.855209 53:-1 54:-1 55:-0.965502 56:-0.96636 57:-0.977399 
65536 1:-1 2:-1 3:-1 4:-1 5:-1 6:-1 7:-1 8:-1 9:-1 10:-1 11:-1 12:-1 13:-1 14:-1 15:-1 16:-1 17:-1 18:-1 19:-1 20:-1 21:-1 22:-1 23:-1 24:-1 25:-1 26:-1 27:-1 28:-1 29:-1 30:-1 31:-1 32:-1 33:-1 34:-1 35:-1 36:-1 37:-1 38:-1 39:-1 40:-1 41:-1 42:-1 43:-1 44:-1 45:-0.873016 46:-1 47:-1 48:-1 49:-1 50:-0.955906 51:-1 52:-1 53:-0.928369 54:-1 55:-0.994667 56:-0.996596 57:-0.992172 
5634.036895566455 1:-1 2:-1 3:-1 4:-1 5:-0.5 6:-1 7:-1 8:-1 9:-1 10:-1 11:-1 12:-0.871768 13:-1 14:-1 15:-1 16:-1 17:-0.64986 18:-1 19:-0.6672 20:-1 21:-0.888389 22:-1 23:-1 24:-1 25:-1 26:-1 27:-1 28:-1 29:-1 30:-1 31:-1 32:-1 33:-1 34:-1 35:-1 36:-1 37:-1 38:-1 39:-1 40:-1 41:-1 42:-1 43:-1 44:-1 45:-1 46:-1 47:-1 48:-1 49:-1 50:-1 51:-1 52:-0.991637 53:-1 54:-1 55:-0.997983 56:-0.996596 57:-0.992929 
65536 1:-1 2:-1 3:-1 4:-1 5:-1 6:-1 7:-1 8:-1 9:-1 10:-1 11:-1 12:-0.851086 13:-1 14:-1 15:-1 16:-1 17:-1 18:-1 19:-1 20:-1 21:-1 22:-1 23:-1 24:-1 25:-1 26:-1 27:-1 28:-0.894389 29:-1 30:-1 31:-1 32:-1 33:-1 34:-1 35:-1 36:-0.937581 37:-1 38:-1 39:-0.901538 40:-1 41:-1 42:-1 43:-1 44:-1 45:-1 46:-1 47:-1 48:-1 49:-1 50:-0.961854 51:-1 52:-1 53:-1 54:-1 55:-0.99669 56:-0.992591 57:-0.969823 
19802.98165820748 1:-0.955947 2:-1 3:-0.988235 4:-1 5:-0.98 6:-0.989796 7:-1 8:-1 9:-1 10:-0.981998 11:-0.923372 12:-0.911065 13:-1 14:-1 15:-1 16:-0.927165 17:-0.971989 18:-1 19:-0.954133 20:-1 21:-0.927993 22:-1 23:-1 24:-1 25:-1 26:-1 27:-1 28:-1 29:-1 30:-1 31:-1 32:-1 33:-0.977998 34:-1 35:-1 36:-0.96619 37:-0.976238 38:-1 39:-1 40:-1 41:-1 42:-0.991597 43:-1 44:-0.996399 45:-1 46:-1 47:-1 48:-0.92 49:-0.993615 50:-0.984003 51:-1 52:-0.996446 53:-0.99367 54:-0.998084 55:-0.992864 56:-0.977573 57:-0.551894 
6393.280142085671 1:-0.947137 2:-0.753501 3:-0.752941 4:-1 5:-0.824 6:-1 7:-0.966988 8:-0.909991 9:-0.904943 10:-0.29793 11:-0.616858 12:-0.817994 13:-0.956757 14:-1 15:-1 16:-0.950787 17:-0.966387 18:-1 19:-0.690667 20:-0.920886 21:-0.751575 22:-1 23:-0.585321 24:-0.9808 25:-1 26:-1 27:-1 28:-1 29:-1 30:-1 31:-1 32:-1 33:-1 34:-1 35:-1 36:-1 37:-1 38:-1 39:-1 40:-1 41:-1 42:-1 43:-0.932773 44:-1 45:-1 46:-1 47:-1 48:-1 49:-0.991334 50:-0.922272 51:-0.885488 52:-1 53:-0.960353 54:-1 55:-0.994271 56:-0.992591 57:-0.936111 
1261.619398221631 1:-0.797357 2:-1 3:-0.819608 4:-1 5:-1 6:-1 7:-1 8:-0.917192 9:-1 10:-1 11:-1 12:-0.714581 13:-1 14:-1 15:0.615385 16:-1 17:-0.871148 18:-0.89879 19:-0.704533 20:-1 21:-0.584158 22:-1 23:-0.493578 24:-1 25:-1 26:-1 27:-1 28:-1 29:-1 30:-1 31:-1 32:-1 33:-1 34:-1 35:-1 36:-1 37:-1 38:-1 39:-1 40:-0.806723 41:-1 42:-1 43:-1 44:-1 45:-1 46:-1 47:-1 48:-1 49:-1 50:-0.898687 51:-1 52:-0.991428 53:-0.725804 54:-1 55:-0.995642 56:-0.997797 57:-0.987247 
24440.46563698434 1:-1 2:-1 3:-1 4:-1 5:0.538 6:-1 7:-1 8:-1 9:-1 10:-1 11:-1 12:-1 13:-1 14:-1 15:-1 16:-1 17:-1 18:-1 19:-1 20:-1 21:-1 22:-1 23:-1 24:-1 25:-1 26:-1 27:-1 28:-1 29:-1 30:-1 31:-1 32:-1 33:-1 34:-1 35:-1 36:-1 37:-1 38:-1 39:-1 40:-1 41:-1 42:-1 43:-1 44:-1 45:-1 46:-1 47:-1 48:-1 49:-1 50:-0.879409 51:-1 52:-1 53:-1 54:-1 55:-1 56:-1 57:-0.999369 
65536 1:-1 2:-1 3:-1 4:-1 5:-1 6:-1 7:-1 8:-1 9:-1 10:-1 11:-1 12:-0.565667 13:-1 14:-1 15:-1 16:-1 17:-1 18:-1 19:-0.776 20:-1 21:-0.810981 22:-1 23:-1 24:-1 25:-1 26:-1 27:-1 28:-1 29:-1 30:-1 31:-1 32:-1 33:-1 34:-1 35:-1 36:-1 37:-1 38:-1 39:-1 40:-1 41:-1 42:-1 43:-1 44:-1 45:-1 46:-1 47:-1 48:-1 49:-1 50:-0.963495 51:-1 52:-1 53:-1 54:-1 55:-0.999501 56:-0.998799 57:-0.993687 
6817.387532883165 1:-1 2:-1 3:-1 4:-1 5:-1 6:-1 7:-1 8:-1 9:-1 10:-1 11:-1 12:-1 13:-1 14:-1 15:-1 16:-1 17:-1 18:-1 19:-0.661867 20:-1 21:-0.429343 22:-1 23:0.163303 24:-1 25:-1 26:-1 27:-1 28:-1 29:-1 30:-1 31:-1 32:-1 33:-1 34:-1 35:-1 36:-1 37:-1 38:-1 39:-1 40:-1 41:-1 42:-1 43:-1 44:-1 45:-1 46:-1 47:-1 48:-1 49:-1 50:-1 51:-1 52:-0.968846 53:-0.801099 54:-1 55:-0.995764 56:-0.997797 57:-0.996338 
58.86837627605269 1:-0.687225 2:-1 3:-1 4:-1 6:-1 7:-1 8:-1 9:-1 10:-1 11:-1 12:-1 13:-1 14:-1 15:-1 16:-0.438976 17:-1 18:-1 19:-0.771733 20:-1 21:-1 22:-1 23:-1 24:-0.8864 25:-1 26:-1 27:-1 28:-1 29:-1 30:-1 31:-1 32:-1 33:-1 34:-1 35:-1 36:-1 37:-1 38:-1 39:-1 40:-1 41:-1 42:-1 43:-1 44:-1 45:-1 46:-1 47:-1 48:-1 49:-1 50:-1 51:-1 52:-0.851863 53:-1 54:-1 55:-0.996316 56:-0.997797 57:-0.987121 
65536 1:-1 2:-1 3:-1 4:-1 5:-0.976 6:-1 7:-1 8:-1 9:-1 10:-1 11:-1 12:-0.813857 13:-1 14:-1 15:-1 16:-0.976378 17:-1 18:-0.973597 19:-0.9872 20:-1 21:-0.978398 22:-1 23:-1 24:-1 25:-1 26:-1 27:-1 28:-0.944994 29:-0.983193 30:-0.959184 31:-1 32:-1 33:-1 34:-1 35:-1 36:-0.83355 37:-1 38:-0.94 39:-1 40:-1 41:-1 42:-0.946779 43:-1 44:-1 45:-1 46:-0.954491 47:-1 48:-1 49:-1 50:-0.919811 51:-1 52:-1 53:-1 54:-1 55:-0.997427 56:-0.99199 57:-0.939394 
11472.34847981345 1:-1 2:-1 3:-0.890196 4:-1 5:-0.968 6:-0.938776 7:-1 8:-1 9:-1 10:-1 11:-0.984674 12:-0.981386 13:-0.96036 14:-1 15:-1 16:-1 17:-1 18:-1 19:-0.985067 20:-1 21:-0.9964 22:-1 23:-1 24:-0.9936 25:-1 26:-1 27:-1 28:-1 29:-1 30:-1 31:-1 32:-1 33:-1 34:-0.970588 35:-1 36:-1 37:-1 38:-1 39:-0.995897 40:-1 41:-1 42:-1 43:-1 44:-1 45:-1 46:-1 47:-1 48:-1 49:-1 50:-0.97621 51:-0.984876 52:-0.996446 53:-1 54:-1 55:-0.971699 56:-0.969363 57:0.147601 
65536 1:-1 2:-1 3:-0.670588 4:-1 5:-0.888 6:-1 7:-1 8:-0.89919 9:-1 10:-1 11:-1 12:-1 13:-1 14:-1 15:-1 16:-0.944882 17:-1 18:-1 19:-0.879467 20:-1 21:-0.949595 22:-1 23:-1 24:-1 25:-1 26:-1 27:-1 28:-1 29:-1 30:-1 31:-1 32:-1 33:-1 34:-1 35:-1 36:-1 37:-1 38:-1 39:-1 40:-0.882353 41:-1 42:-1 43:-1 44:-1 45:-1 46:-1 47:-1 48:-1 49:-1 50:-0.942986 51:-1 52:-0.995191 53:-1 54:-1 55:-0.9988 56:-0.998999 57:-0.985227 
7703.05134890275 1:-0.704846 2:-1 3:-0.737255 4:-1 5:-1 6:-1 7:-1 8:-1 9:-1 10:-0.879388 11:-1 12:-1 13:-1 14:-1 15:-1 16:-1 17:-1 18:-1 19:-0.856 20:-1 21:-0.756976 22:-1 23:-1 24:-1 25:-1 26:-1 27:-1 28:-1 29:-1 30:-1 31:-1 32:-1 33:-1 34:-0.432773 35:-1 36:-1 37:-1 38:-1 39:-1 40:-1 41:-1 42:-1 43:-1 44:-1 45:-1 46:-1 47:-1 48:-1 49:-1 50:-1 51:-1 52:-0.753071 53:-1 54:-1 55:-0.995671 56:-0.992791 57:-0.98346 
65536 1:-0.84141 2:-1 3:-0.572549 4:-1 5:-1 6:-1 7:-1 8:-1 9:-1 10:-1 11:-1 12:-0.851086 13:-0.347748 14:-1 15:-1 16:-1 17:-1 18:-1 19:-0.9232 20:-1 21:-0.80378 22:-1 23:-1 24:-0.8848 25:-1 26:-1 27:-1 28:-1 29:-1 30:-1 31:-1 32:-1 33:-1 34:-1 35:-1 36:-1 37:-1 38:-1 39:-1 40:-1 41:-1 42:-1 43:-1 44:-1 45:-1 46:-1 47:-1 48:-1 49:-0.971266 50:-0.974159 51:-1 52:-0.993414 53:-0.958021 54:-1 55:-0.997164 56:-0.993192 57:-0.984596 
42561.82046025484 1:-1 2:-1 3:-0.792157 4:-1 5:-0.894 6:-1 7:-0.854195 8:-1 9:-1 10:-0.90459 11:-1 12:-1 13:-1 14:-1 15:-1 16:-1 17:-0.851541 18:-1 19:-0.376 20:-1 21:-0.425743 22:-1 23:-1 24:-1 25:-1 26:-1 27:-1 28:-1 29:-1 30:-1 31:-1 32:-1 33:-1 34:-1 35:-1 36:-1 37:-1 38:-1 39:-1 40:-1 41:-1 42:-1 43:-1 44:-1 45:-1 46:-1 47:-1 48:-1 49:-1 50:-0.981542 51:-1 52:-0.96226 53:-1 54:-1 55:-0.997391 56:-0.996396 57:-0.990278 
65536 1:-1 2:-1 3:-1 4:-1 5:-0.824 6:-1 7:-1 8:-1 9:-1 10:-1 11:-0.662835 12:-0.908997 13:-1 14:-1 15:-1 16:-1 17:-1 18:-0.90319 19:-0.8592 20:-1 21:-0.762376 22:-1 23:-1 24:-1 25:-0.957753 26:-0.947179 27:-1 28:-1 29:-1 30:-1 31:-1 32:-1 33:-1 34:-1 35:-1 36:-1 37:-1 38:-1 39:-1 40:-1 41:-1 42:-1 43:-1 44:-1 45:-1 46:-1 47:-1 48:-1 49:-0.967161 50:-0.985234 51:-1 52:-0.969578 53:-1 54:-1 55:-0.999368 56:-0.9996 57:-0.992803 
2768.263850313941 1:-1 2:-1 3:-1 4:-1 5:-1 6:-1 7:-1 8:-1 9:-1 10:-1 11:-1 12:-1 13:-1 14:-1 15:-1 16:-1 17:-1 18:-1 19:-1 20:-1 21:-1 22:-1 23:-1 24:-1 25:-1 26:-1 27:-1 28:0.832783 29:-1 30:-1 31:-1 32:-1 33:-1 34:-1 35:-1 36:-1 37:-1 38:-1 39:-1 40:-1 41:-1 42:-1 43:-1 44:-1 45:-1 46:-1 47:-1 48:-1 49:-1 50:-0.587162 51:-1 52:-1 53:-1 54:-1 55:-0.995461 56:-0.994594 57:-0.994823 
65536 1:-1 2:-1 3:-1 4:-1 5:-1 6:-0.731293 7:-1 8:-1 9:-1 10:-1 11:-1 12:-1 13:-1 14:-1 15:-1 16:-1 17:-1 18:-1 19:-0.746133 20:-1 21:-1 22:-1 23:-1 24:-1 25:-1 26:-1 27:-1 28:-1 29:-1 30:-1 31:-1 32:-1 33:-1 34:-1 35:-1 36:-1 37:-1 38:-1 39:-1 40:-1 41:-1 42:-1 43:-1 44:-1 45:-1 46:-1 47:-1 48:-1 49:-1 50:-0.969852 51:-1 52:-1 53:-1 54:-1 55:-0.996527 56:-0.994794 57:-0.991667 
17780.99169691212 1:-1 2:-1 3:-1 4:-1 5:-0.63 6:-1 7:-1 8:-0.666967 9:-1 10:-1 11:-1 12:-1 13:-1 14:-1 15:-1 16:-1 17:-1 18:-1 19:-1 20:-1 21:-1 22:-1 23:-1 24:-1 25:-1 26:-1 27:-1 28:-1 29:-1 30:-1 31:-1 32:-1 33:-1 34:-1 35:-1 36:-1 37:-1 38:-1 39:-1 40:-1 41:-1 42:-1 43:-1 44:-1 45:-1 46:-1 47:-1 48:-1 49:-1 50:-0.954266 51:-1 52:-1 53:-1 54:-1 55:-0.996369 56:-0.997197 57:-0.993308 
185.0203193261509 1:1 2:-0.364146 3:-1 4:-1 5:-1 6:-1 7:-1 8:-1 9:-1 10:-1 11:-1 12:-1 13:-1 14:-1 15:-1 16:-0.106299 17:-1 18:1 19:-1 20:-1 21:-0.182718 22:-1 23:-1 24:0.4544 25:-1 26:-1 27:-1 28:-1 29:-1 30:-1 31:-1 32:-1 33:-1 34:-1 35:-1 36:-1 37:-1 38:-1 39:-1 40:-1 41:-1 42:-1 43:-1 44:-1 45:-1 46:-1 47:-1 48:-1 49:-1 50:-1 51:-1 52:-0.678428 53:-1 54:-1 55:-0.999223 56:-0.999399 57:-0.998864 
65536 1:-1 2:-1 3:-1 4:-1 5:-1 6:-1 7:-0.900963 8:-1 9:-1 10:-1 11:-1 12:-1 13:-1 14:-1 15:-1 16:-0.929134 17:-1 18:-1 19:-0.648 20:-1 21:-1 22:-1 23:-1 24:-1 25:-1 26:-1 27:-1 28:-1 29:-1 30:-1 31:-1 32:-1 33:-1 34:-1 35:-1 36:-1 37:-1 38:-1 39:-1 40:-1 41:-1 42:-1 43:-1 44:-1 45:-0.931839 46:-1 47:-1 48:-1 49:-1 50:-1 51:-1 52:-0.994459 53:-0.982342 54:-1 55:-0.968461 56:-0.973368 57:-0.9375 
65536 1:-1 2:-1 3:0.00392157 4:-1 5:-1 6:-1 7:-1 8:-1 9:-1 10:-1 11:-1 12:-1 13:-1 14:-1 15:-1 16:-1 17:-1 18:-1 19:-0.453867 20:-1 21:-1 22:-1 23:-1 24:-1 25:-1 26:-1 27:-1 28:-1 29:-1 30:-1 31:-1 32:-1 33:-1 34:-1 35:-1 36:-1 37:-1 38:-1 39:-1 40:-1 41:-1 42:-1 43:-1 44:-1 45:-1 46:-1 47:-1 48:-1 49:-1 50:-0.936833 51:-1 52:-0.838691 53:-1 54:-1 55:-0.996773 56:-0.998999 57:-0.99697 
65536 1:-1 2:-1 3:-1 4:-1 5:-1 6:-1 7:-1 8:-1 9:-1 10:-1 11:-1 12:-1 13:-1 14:-1 15:-1 16:-1 17:-1 18:-1 19:-1 20:-1 21:-1 22:-1 23:-1 24:-1 25:-1 26:-1 27:-1 28:-1 29:-1 30:-1 31:-1 32:-1 33:-1 34:-1 35:-1 36:-1 37:-1 38:-1 39:-1 40:-1 41:-1 42:-1 43:-1 44:-1 45:-1 46:-0.823952 47:-1 48:-1 49:-1 50:-0.925349 51:-1 52:-1 53:-1 54:-1 55:-0.995951 56:-0.992591 57:-0.984217 
65536 1:-1 2:-0.87395 3:-1 4:-1 5:-1 6:-1 7:-1 8:-1 9:-1 10:-1 11:-1 12:-1 13:-1 14:-1 15:-1 16:-0.822835 17:-1 18:-0.60176 19:-0.6128 20:-1 21:-0.510351 22:-1 23:-1 24:-1 25:-1 26:-1 27:-1 28:-1 29:-1 30:-1 31:-1 32:-1 33:-1 34:-1 35:-1 36:-1 37:-1 38:-1 39:-1 40:-1 41:-1 42:-1 43:-1 44:-1 45:-0.915966 46:-1 47:-1 48:-1 49:-1 50:-1 51:-1 52:-0.982228 53:-0.943362 54:-1 55:-0.990438 56:-0.99199 57:-0.988258 
65536 1:-1 2:-1 3:-1 4:-1 5:-1 6:-1 7:-1 8:-1 9:-1 10:-1 11:-1 12:-1 13:-1 14:-1 15:-1 16:-1 17:-1 18:-1 19:-0.8624 20:-1 21:-0.884788 22:-1 23:-1 24:-1 25:-1 26:-1 27:-1 28:-1 29:-1 30:-1 31:-1 32:-1 33:-1 34:-1 35:-1 36:-1 37:-1 38:-1 39:-1 40:-1 41:-1 42:-1 43:-1 44:-1 45:-1 46:-1 47:-1 48:-1 49:-1 50:-1 51:-1 52:-1 53:-1 54:-1 55:-0.999813 56:-0.9996 57:-0.996086 
862.1495744003818 1:-1 2:-1 3:-0.74902 4:-1 5:-1 6:-0.782313 7:-1 8:-1 9:-1 10:-1 11:-1 12:-1 13:-1 14:-1 15:-1 16:-0.874016 17:-1 18:-1 19:-0.723733 20:-1 21:-1 22:-1 23:-0.765138 24:-1 25:-1 26:-1 27:-1 28:-1 29:-1 30:-1 31:-1 32:-1 33:-1 34:-1 35:-1 36:-1 37:-0.746535 38:-1 39:-1 40:-1 41:-1 42:-1 43:-1 44:-1 45:-1 46:-1 47:-1 48:-1 49:-0.957127 50:-0.961239 51:-0.795463 52:-0.930793 53:-1 54:-1 55:-0.983535 56:-0.973969 57:-0.963258 
39419.9038010861 1:-1 2:-1 3:-0.666667 4:-1 5:-0.916 6:-1 7:-1 8:-1 9:-1 10:-1 11:-1 12:-1 13:-1 14:-1 15:-1 16:-0.917323 17:-1 18:-1 19:-0.771733 20:-1 21:-0.769577 22:-1 23:-1 24:-1 25:-1 26:-1 27:-1 28:-1 29:-1 30:-1 31:-1 32:-1 33:-1 34:-1 35:-1 36:-1 37:-1 38:-1 39:-1 40:-1 41:-1 42:-1 43:-1 44:-1 45:-0.960784 46:-1 47:-1 48:-1 49:-1 50:-0.967391 51:-1 52:-0.883226 53:-1 54:-1 55:-0.999626 56:-0.998799 57:-0.985354 
53432.02784324961 1:-1 2:-1 3:-1 4:-1 5:-0.818 6:-1 7:-1 8:-1 9:-1 10:-0.918992 11:-1 12:-0.906929 13:-1 14:-1 15:-1 16:-1 17:-1 18:-1 19:-0.6576 20:-0.857595 21:-0.836184 22:-1 23:-1 24:-1 25:-1 26:-1 27:-1 28:-1 29:-1 30:-1 31:-1 32:-1 33:-1 34:-1 35:-1 36:-1 37:-1 38:-1 39:-1 40:-1 41:-1 42:-1 43:-1 44:-1 45:-0.872082 46:-1 47:-1 48:-1 49:-1 50:-1 51:-1 52:-0.982855 53:-1 54:-1 55:-0.999862 56:-0.999399 57:-0.994823 
45282.20383129561 1:-0.687225 2:-0.95098 3:-0.721569 4:-1 5:-0.642 6:-1 7:-1 8:-1 9:-1 10:-0.936994 11:-1 12:-0.70424 13:-1 14:-1 15:-1 16:-0.931102 17:-1 18:-1 19:-0.579733 20:-1 21:-0.742574 22:-1 23:-1 24:-1 25:-1 26:-1 27:-1 28:-1 29:-1 30:-1 31:-1 32:-1 33:-1 34:-1 35:-1 36:-1 37:-1 38:-1 39:-1 40:-1 41:-1 42:-1 43:-1 44:-1 45:-1 46:-1 47:-1 48:-1 49:-1 50:-0.98749 51:-1 52:-1 53:-1 54:-1 55:-0.987134 56:-0.969563 57:-0.976641 
49821.40372241845 1:-1 2:-1 3:-1 4:-1 5:-1 6:-0.795918 7:-0.834938 8:-1 9:-1 10:-1 11:-0.54023 12:-1 13:-1 14:-1 15:-1 16:-1 17:-1 18:-0.733773 19:-0.805867 20:-1 21:-1 22:-1 23:-1 24:-1 25:-1 26:-1 27:-1 28:-1 29:-1 30:-1 31:-1 32:-1 33:-1 34:-1 35:-1 36:-1 37:-1 38:-1 39:-1 40:-1 41:-1 42:-1 43:-1 44:-1 45:-1 46:-1 47:-1 48:-1 49:-1 50:-0.980517 51:-1 52:-1 53:-1 54:-1 55:-0.998941 56:-0.997998 57:-0.995328 
65536 1:-0.704846 2:-1 3:-0.737255 4:-1 5:-1 6:-1 7:-1 8:-1 9:-1 10:-0.879388 11:-1 12:-1 13:-1 14:-1 15:-1 16:-1 17:-1 18:-1 19:-0.856 20:-1 21:-0.756976 22:-1 23:-1 24:-1 25:-1 26:-1 27:-1 28:-1 29:-1 30:-1 31:-1 32:-1 33:-1 34:-1 35:-1 36:-1 37:-1 38:-1 39:-1 40:-1 41:-1 42:-1 43:-1 44:-1 45:-1 46:-1 47:-1 48:-1 49:-1 50:-1 51:-1 52:-0.747739 53:-1 54:-1 55:-0.995671 56:-0.992791 57:-0.98346 
27356.26590991156 1:-1 2:-1 3:-1 4:-1 5:-1 6:-0.619048 7:-1 8:-1 9:-1 10:-1 11:-1 12:-1 13:-1 14:-1 15:-1 16:-1 17:-1 18:-1 19:-0.761067 20:-1 21:-1 22:-1 23:-1 24:-1 25:-1 26:-1 27:-1 28:-1 29:-1 30:-1 31:-1 32:-1 33:-1 34:-1 35:-1 36:-1 37:-1 38:-1 39:-1 40:-1 41:-1 42:-1 43:-1 44:-1 45:-1 46:-1 47:-1 48:-1 49:-1 50:-0.919606 51:-1 52:-0.65156 53:-1 54:-1 55:-0.997184 56:-0.997797 57:-0.990783 
3489.13167547232 1:-1 2:-1 3:-1 4:-1 5:-1 6:-1 7:-0.595598 8:-1 9:-1 10:-1 11:-1 12:-1 13:-1 14:-1 15:-1 16:-1 17:-1 18:-1 19:-1 20:-1 21:-0.735374 22:-1 23:-1 24:-1 25:-1 26:-1 27:-1 28:-1 29:-1 30:-1 31:-1 32:-1 33:-1 34:-1 35:-1 36:-1 37:-1 38:-1 39:-1 40:-1 41:-1 42:-1 43:-1 44:-1 45:-1 46:-1 47:-1 48:-1 49:-0.773774 50:-1 51:-1 52:-1 53:-0.917375 54:-0.799788 55:-0.996096 56:-0.997797 57:-0.992172 
43833.91497464844 1:-0.977974 2:-0.957983 3:-0.843137 4:-1 5:-0.98 6:-0.982993 7:-1 8:-0.990999 9:-0.961977 10:-1 11:-1 12:-0.937952 13:-0.927928 14:-1 15:-0.965035 16:-1 17:-1 18:-0.889989 19:-0.834667 20:-0.905063 21:-0.864986 22:-1 23:-0.944954 24:-0.968 25:-0.995199 26:-0.993998 27:-1 28:-1 29:-1 30:-1 31:-1 32:-1 33:-1 34:-1 35:-1 36:-1 37:-1 38:-1 39:-1 40:-1 41:-1 42:-1 43:-1 44:-0.993998 45:-0.995331 46:-1 47:-1 48:-1 49:-1 50:-0.992617 51:-1 52:-0.994355 53:-0.960686 54:-1 55:-0.997496 56:-0.980977 57:-0.926515 
